0.418
-0.044
-0.126
-0.973
-0.517
0.392
-0.294
-0.367
-0.519
-0.027
0.267
-0.757
-0.249
0.218
-0.373
0.417
0.132
0.170
-0.702
-0.736
0.187
0.016
-0.318
-0.253
0.163
0.210
-0.181
0.787
0.308
-0.550
-0.198
0.442
0.160
0.232
-0.694
-0.055
0.523
0.343
-0.198
-0.097
-0.811
0.136
-0.239
0.562
-0.459
-0.203
0.655
-0.036
0.706
-0.533
0.190
-0.163
0.358
-0.282
0.398
0.107
-0.568
-0.919
-0.917
-0.774
-0.162
0.430
0.104
-1.189
0.164
0.100
0.391
-0.902
-0.101
0.108
-0.049
-0.560
0.268
-0.285
0.439
-0.029
0.299
0.159
-0.572
-0.487
-0.013
-0.795
-0.330
0.311
-0.394
0.056
0.577
0.598
-0.608
0.080
-0.997
-0.402
-0.319
-0.108
0.174
0.057
0.131
0.559
0.494
0.115
-0.181
0.233
-0.234
-0.209
-0.124
0.166
-0.716
0.820
0.092
-1.116
-0.152
-0.705
-0.217
-0.605
-0.126
-0.078
-0.017
-0.009
-0.235
-0.174
0.277
0.399
-0.257
0.530
0.071
-0.887
-0.583
0.453
-0.551
0.089
-0.309
-0.626
-0.242
-0.687
0.085
0.617
0.054
-0.037
0.003
-0.334
-0.588
-1.209
-0.079
0.493
-0.626
-0.697
-0.821
0.450
0.578
-0.625
-0.731
-1.020
0.011
-0.997
-0.022
-0.072
-0.401
-0.476
0.495
-0.169
-0.160
-0.538
-0.639
-0.879
-0.272
-0.376
-0.654
-0.246
0.285
-0.185
-0.181
0.073
-1.001
-0.103
-0.347
-0.106
-0.348
-0.057
-0.134
0.147
-0.080
0.108
0.269
0.474
-0.239
-0.829
0.072
-0.160
-0.226
0.289
0.310
0.111
-0.098
-0.752
-0.784
0.117
0.058
-0.337
0.377
0.062
-0.815
-0.006
-0.185
-0.072
0.043
-0.278
-0.807
0.097
0.201
-0.157
0.870
0.370
-0.528
0.330
-0.544
-0.301
-0.097
-0.013
-0.155
-1.589
-0.581
-0.077
-0.486
-0.421
0.793
0.224
0.312
0.156
0.231
0.006
-0.365
-0.151
-0.136
-0.140
0.135
-0.572
-0.360
-1.177
-0.317
-0.379
-0.610
-0.471
0.476
0.281
-0.162
-0.151
0.120
0.185
-0.174
-0.123
-0.211
0.445
-0.551
-0.049
0.586
-0.429
0.069
0.636
-0.418
0.408
0.033
0.134
-0.371
-0.205
0.228
-0.419
0.720
0.387
0.417
-0.173
-0.221
-1.777
-0.004
0.340
-0.440
-0.151
-0.215
0.827
0.362
-0.050
0.303
-0.071
0.195
-0.709
0.078
-0.719
-0.028
-0.132
-0.335
-0.233
-0.412
0.161
0.600
0.140
-0.163
0.221
-0.308
-0.117
-0.011
0.222
-0.258
-0.679
-0.311
0.233
0.189
-0.055
-0.085
-0.074
-0.113
-0.407
-0.519
0.147
0.058
-0.886
0.688
-0.016
-0.823
-0.163
-0.470
-0.237
0.275
0.339
0.353
-0.008
-0.254
-0.175
-0.001
0.261
-0.332
-0.064
-0.647
0.102
-1.018
-0.251
-0.015
-0.288
-0.756
-0.060
-0.019
-0.295
-0.122
-0.218
0.179
-0.109
-0.461
-0.303
0.499
0.092
0.485
-0.752
-1.004
-0.174
0.104
-0.219
-0.139
-0.265
-0.090
-0.884
-0.555
-0.787
-0.797
0.432
-0.188
-0.780
-0.746
-0.288
-0.019
-0.468
-0.951
0.179
-0.178
-0.793
0.435
-0.728
0.522
0.150
-0.833
-0.427
-0.460
-0.741
-0.684
-0.906
-0.409
-0.051
0.393
-0.414
-0.615
-0.220
0.366
0.182
-0.554
-0.146
0.178
-0.238
-0.243
-0.119
-0.875
0.384
0.491
-0.479
-0.606
-0.307
-0.294
-0.319
-0.615
0.324
-0.123
-0.071
-0.377
0.037
-0.556
-0.824
0.257
0.821
-0.526
-0.046
-0.047
-0.730
0.318
-0.214
0.391
-0.571
-0.454
-0.215
-0.271
-0.084
-0.418
-0.301
0.031
0.527
0.156
-0.007
0.305
0.424
0.288
-0.276
0.010
-0.138
-0.876
-0.055
-0.951
0.383
0.321
0.332
0.041
-0.167
-0.129
-0.235
0.131
0.202
0.194
-0.243
0.111
-0.323
-0.928
-0.249
0.020
-0.075
-0.007
0.199
0.116
0.782
-0.269
0.288
-0.041
-0.470
-0.329
0.048
-0.185
0.048
-0.082
0.070
-0.101
-0.662
0.620
-0.789
-0.121
-0.469
-1.010
0.058
-0.301
0.458
0.132
-0.045
-0.177
0.420
0.299
0.147
-0.303
0.336
0.181
-0.669
-0.713
0.250
-0.652
0.011
-0.169
-0.603
-0.660
-0.167
-0.327
0.463
0.184
-0.559
-0.246
0.093
0.435
0.483
0.223
0.035
0.785
0.187
0.293
-0.018
0.030
0.551
0.142
0.123
-0.409
-0.176
0.419
-0.170
0.323
-0.639
-0.718
-0.118
-0.193
0.025
-0.254
-0.012
-0.535
0.285
0.039
0.077
-0.725
0.187
0.356
-0.979
-0.031
-0.241
-0.731
-0.081
-0.190
-0.544
0.112
0.057
0.040
-0.067
-0.191
-0.417
-0.467
-0.055
-0.227
-0.038
0.641
-0.688
0.395
0.559
0.288
-0.627
-0.205
0.441
0.207
0.532
-0.047
-0.646
-0.114
-0.728
-0.514
0.190
-0.583
-0.597
0.118
-0.489
-0.720
-0.401
-0.369
-0.119
-0.130
-0.662
-0.438
0.605
0.345
0.538
-0.359
0.682
0.210
-0.277
-0.546
-0.182
-0.047
0.367
0.104
0.204
-0.257
-0.506
0.632
-0.388
-0.714
0.533
-0.114
-0.136
0.715
0.021
0.055
0.254
-0.536
-0.856
0.204
-0.429
-0.232
-0.058
-0.152
0.480
0.410
-0.116
0.237
-0.226
-0.193
-0.710
-0.228
-0.271
-0.713
-0.341
0.056
0.032
-0.524
0.030
0.482
-0.177
0.012
0.118
-0.256
0.362
-0.305
0.158
-0.771
-1.420
-0.132
-0.144
-0.054
0.050
-0.459
-0.447
-0.531
-0.122
-0.724
0.137
-0.411
-0.015
0.406
-0.724
-0.079
-0.007
-0.805
-0.031
-0.549
-0.263
-0.094
0.845
0.299
0.558
-0.594
-0.116
-0.802
0.088
0.624
-0.230
-0.583
-0.886
-0.300
-0.395
-0.225
-1.054
0.185
0.145
0.205
0.277
-0.552
0.168
0.821
0.439
0.244
-0.055
0.388
0.334
0.583
0.741
0.576
-0.036
0.660
0.612
0.516
0.448
0.683
0.628
0.517
0.060
0.734
-0.127
0.507
0.391
0.130
-0.000
0.744
0.368
0.238
0.517
0.380
0.791
0.089
0.684
0.491
0.445
0.814
-0.403
0.224
0.449
0.081
-0.095
0.635
0.233
0.548
0.187
0.298
0.695
-0.367
0.186
0.402
0.311
0.272
0.861
0.393
0.408
0.671
0.400
0.199
0.055
0.162
0.010
0.344
0.282
0.434
0.037
0.518
0.381
-0.083
-0.190
-0.112
-0.076
0.285
0.288
-0.167
-0.225
-0.383
0.183
-0.033
0.554
-0.658
-0.141
-0.191
-0.315
-0.329
-0.786
-0.046
-0.647
-0.035
-0.351
-0.162
-0.172
0.022
-0.107
-0.141
-0.237
-0.120
0.065
-0.653
0.055
-0.047
-0.675
0.119
0.202
0.083
0.067
-0.153
0.436
0.053
-0.622
0.169
0.068
0.136
0.184
0.363
0.335
-0.521
-0.090
0.965
-0.052
-1.009
0.568
-0.041
0.113
0.387
0.234
-0.070
-0.509
-0.779
-0.401
0.132
0.209
0.355
0.325
-0.088
0.765
0.056
0.331
0.279
0.096
0.427
0.414
0.202
0.110
-0.073
0.649
0.061
0.485
-0.015
0.588
0.408
-0.594
-0.208
0.135
-0.181
0.205
0.457
0.271
-0.384
-0.324
-0.118
0.538
0.817
0.277
-0.296
0.384
0.299
0.105
0.038
0.012
-0.054
0.240
0.164
0.273
0.215
0.305
-0.047
-0.021
-0.363
0.029
-0.134
0.576
0.487
-0.093
0.618
0.042
0.549
0.039
0.466
0.534
0.621
0.436
-0.007
0.278
-0.158
-0.316
-0.235
-0.383
0.098
0.731
-0.625
0.449
0.171
0.379
0.631
0.170
-0.139
0.190
0.256
0.422
-0.115
0.093
-0.002
0.510
-0.280
0.011
0.582
0.695
0.142
0.804
0.697
0.728
0.467
0.428
0.712
0.411
0.710
0.651
0.400
0.406
0.584
0.723
0.594
0.638
0.611
0.714
0.590
0.296
0.364
0.792
0.571
0.489
0.250
0.671
0.665
0.795
0.409
0.546
0.172
0.456
0.475
0.324
0.257
0.456
0.648
0.561
0.811
0.637
0.747
0.358
0.527
0.300
0.655
0.439
0.559
0.723
0.370
0.500
0.699
0.581
0.567
0.606
0.519
0.391
0.371
-0.311
0.192
0.255
0.502
0.475
0.231
0.565
0.612
0.302
0.193
0.507
0.671
0.595
0.197
0.425
0.483
0.179
0.626
0.617
0.317
0.465
0.690
0.616
0.557
0.766
0.729
0.726
0.302
0.729
0.849
0.006
-0.175
0.638
0.541
0.287
-0.115
0.496
0.548
0.392
-0.040
0.153
0.243
0.268
0.210
0.696
0.407
0.309
0.816
0.472
0.044
-0.159
0.176
0.321
-0.585
-0.284
-0.206
0.121
-0.642
-0.660
-0.887
-0.550
-1.590
-0.554
-0.814
-0.099
-0.871
-0.228
0.100
0.156
-0.212
-0.679
-0.572
0.354
-0.050
0.053
0.462
-0.517
0.451
0.392
-0.178
-0.312
-0.514
-0.066
0.322
0.473
-0.330
-0.256
-0.174
0.390
-0.496
0.228
0.829
0.056
-0.540
0.507
0.095
0.201
0.458
-0.414
0.016
-0.423
0.076
-0.605
0.178
-0.113
0.136
-0.430
-0.237
-0.229
0.006
-1.176
-0.793
-0.435
0.471
-0.476
-1.245
-0.592
-0.453
0.370
-0.022
0.274
-0.322
-0.059
0.188
-0.204
-0.123
0.158
-0.449
0.360
-0.050
0.365
-0.414
0.382
-0.021
0.415
-0.575
-0.810
-0.026
-0.344
0.409
-0.358
0.204
-0.266
-0.495
-0.472
-0.362
0.147
-0.144
-0.662
-0.353
0.305
-0.707
-0.388
-0.680
0.088
-0.241
-0.837
0.724
0.102
0.377
-0.747
0.100
-0.218
-0.158
0.172
-0.354
-0.117
-0.415
-0.068
0.336
0.298
-0.467
-0.054
-0.990
0.125
0.181
-0.033
-0.155
-0.066
-0.320
0.263
-0.319
-0.271
-0.251
-0.033
-0.562
0.006
-0.737
0.164
0.208
-0.153
-1.150
0.420
-0.342
-0.128
0.044
-0.320
-0.083
-0.947
-0.286
-0.036
-0.026
-0.947
-1.013
0.361
-0.025
0.339
0.321
-0.480
0.246
-0.580
0.538
0.015
-0.028
0.128
-0.549
-0.360
-0.292
-0.776
-1.578
-1.230
0.274
0.089
0.194
-0.219
0.329
-0.214
0.035
-0.676
-0.037
-0.534
-0.511
-0.071
0.268
-0.073
-0.376
-0.181
-0.256
-0.114
-0.403
-0.561
-0.647
-0.256
0.302
0.572
-0.266
-0.427
-0.335
0.027
-0.353
-0.904
-0.758
0.042
-0.387
-0.715
-0.037
-0.216
0.235
0.624
-0.220
0.133
-0.656
-0.193
-0.237
0.454
0.039
0.102
-0.161
-0.273
-1.051
0.177
-0.540
-0.325
0.245
0.331
0.487
0.375
0.244
0.296
-0.780
0.391
-1.070
-0.057
-0.813
-0.456
0.053
-0.440
0.109
0.111
0.430
0.080
0.163
0.168
-0.068
0.094
-0.032
-0.096
0.029
0.265
-0.388
-0.695
-0.407
0.035
-0.065
0.679
0.137
0.040
-0.154
-0.202
0.285
-0.199
0.262
-1.042
0.401
0.510
0.219
-0.159
0.315
-0.025
0.063
-0.661
-0.409
0.068
-0.232
0.232
-0.210
-0.098
0.403
-0.334
-0.236
0.557
-1.240
-0.047
-0.170
-0.401
0.193
0.658
-0.116
-0.237
-0.555
0.293
0.198
-0.038
-1.037
0.246
0.535
0.493
0.197
0.436
-0.059
-0.308
0.233
-0.487
0.457
0.356
0.777
-0.255
0.332
-1.662
-0.401
0.001
-0.240
-0.155
0.191
-0.538
-0.058
-0.358
-0.382
0.244
0.460
-0.397
-0.314
-0.019
0.116
0.622
-0.683
0.161
-0.139
-0.211
-0.397
-0.784
-0.107
0.242
0.200
0.378
-0.603
-0.406
-0.550
-0.216
-0.456
0.161
-0.086
-0.828
-0.468
0.546
-0.201
0.644
-0.652
0.011
-0.030
-0.191
0.369
0.565
-0.272
-0.331
0.467
-0.035
-0.570
0.074
-0.305
-1.437
-0.691
-0.149
-0.218
-0.080
0.229
0.456
-0.379
-0.467
-1.304
-0.121
0.371
-0.287
-0.493
-0.200
0.392
-0.185
0.144
0.328
-0.581
0.091
0.075
0.163
0.201
0.007
-0.356
0.289
-0.091
-0.428
-0.633
0.360
0.256
0.152
-0.380
-0.441
-0.295
-0.365
-0.408
0.452
0.039
0.210
-0.207
-0.059
0.446
0.055
0.369
0.614
0.067
-0.075
0.191
0.407
0.073
0.324
0.589
0.176
0.063
0.591
0.422
0.676
0.284
0.068
0.073
0.655
0.677
0.109
0.250
0.449
0.265
0.315
0.610
0.643
0.428
0.144
0.396
0.488
0.164
0.062
0.428
0.146
0.119
0.183
0.418
-0.770
-0.252
-0.628
-0.752
-0.495
-0.230
-0.652
-0.762
-0.467
-0.279
-0.273
-0.274
-0.448
0.231
-0.638
-0.527
-0.375
-1.009
-0.303
0.140
-0.289
-0.477
-0.807
0.097
-1.004
-1.192
0.119
-1.401
-1.188
0.220
-0.230
-0.558
0.012
-0.017
0.182
-0.215
-0.022
-0.077
-0.054
0.348
0.102
-0.085
-0.116
-0.378
-0.000
-0.132
-0.194
-0.092
0.677
0.566
0.018
0.214
-0.001
-0.138
0.534
-0.553
-1.149
0.571
-0.417
0.238
-0.732
0.272
-0.540
0.347
-0.382
-0.280
0.340
-0.455
-0.336
-0.227
-0.015
-0.106
-0.220
-0.255
-0.498
-1.137
-0.645
-0.033
0.022
0.082
0.025
-0.390
0.061
0.345
0.458
0.388
0.811
-0.433
0.286
0.057
0.177
-0.108
0.011
0.349
0.319
0.242
-0.093
0.329
-0.036
0.119
-0.519
0.447
-0.282
-0.159
0.154
-0.461
-0.054
0.029
-0.707
-0.609
-0.345
-0.117
-0.206
0.135
-0.083
-0.158
-0.020
-0.207
-0.246
-0.582
0.116
-0.235
0.243
-0.164
0.048
-0.019
-0.224
0.033
0.123
0.155
0.348
-0.422
0.225
0.432
-0.966
-0.622
-0.680
-0.452
-0.402
-0.097
0.010
-0.476
0.378
0.786
0.607
0.037
-0.322
0.361
-0.768
0.224
0.532
0.139
-0.039
-0.026
-0.241
-0.293
0.265
-0.074
-0.086
-0.395
-0.138
-1.051
0.332
0.309
-0.650
-0.933
-0.372
0.239
0.171
0.367
0.614
0.266
-0.452
-0.796
-0.576
0.087
-0.423
-0.164
-0.609
-0.373
-0.067
-0.107
0.097
0.125
0.412
-0.087
0.126
-0.065
0.055
0.162
-0.472
-0.172
-0.043
0.266
0.295
0.042
-0.643
-0.178
-0.165
0.566
-0.000
0.224
0.087
0.779
0.569
0.277
-0.097
0.537
-0.186
0.541
0.073
-0.080
0.103
-0.794
0.215
0.483
0.148
-0.178
0.897
0.221
0.035
-0.192
-0.636
-0.145
-0.392
0.215
-0.107
-0.190
-0.552
-0.715
-0.367
0.069
-0.146
-0.346
-0.131
-0.328
-0.223
-0.486
-0.457
-0.209
-0.269
0.326
-0.215
-0.135
-0.218
-0.061
0.129
0.272
-0.782
-0.258
-0.073
-0.012
-0.086
-0.290
0.259
0.453
0.622
0.010
0.240
-0.044
-0.161
0.530
-0.770
0.234
0.196
0.162
0.208
0.032
0.198
0.124
-0.476
0.046
0.142
0.023
0.473
0.410
0.422
-0.651
-0.135
0.462
-0.219
-0.076
-0.088
0.404
0.714
-0.055
0.265
-0.611
0.520
0.410
-0.152
-0.842
0.316
-0.365
-0.046
0.294
0.083
-1.237
-0.333
0.125
0.270
0.082
-0.404
-0.447
0.105
0.152
0.289
0.631
0.208
0.052
-0.583
0.137
-0.373
0.725
0.377
0.325
0.806
-0.481
0.183
-0.482
-0.633
-0.367
0.122
-0.450
-0.226
-0.512
-0.009
-0.290
-0.617
-0.698
-0.004
-0.420
-0.063
-0.461
-0.171
-0.585
-0.880
-0.814
-0.420
-0.888
-0.401
-0.495
-0.446
0.155
-1.263
0.436
0.214
-1.164
-0.210
0.135
0.105
0.263
0.527
-0.597
-0.125
0.215
-0.366
0.077
-0.955
-0.380
0.096
-0.086
-0.611
-0.219
-0.642
-0.511
-1.076
0.150
-0.018
-0.159
-0.279
-0.474
-0.224
0.102
0.175
-0.535
-1.204
0.077
-0.140
0.261
0.110
-0.552
-0.453
-0.394
0.013
-0.274
-0.074
0.105
0.523
-0.165
0.267
0.073
-0.425
-0.299
-0.187
-0.259
-1.071
-0.115
-0.360
-0.007
-0.048
-0.989
0.124
-0.186
-0.068
-0.681
-0.052
0.123
-0.738
0.611
-0.497
0.028
-0.249
-0.412
-0.019
-0.563
0.052
0.175
0.317
0.100
0.127
0.173
-0.009
-0.004
-0.488
-0.417
0.037
0.036
-0.533
0.270
0.249
0.532
-0.249
-0.406
-0.907
-1.088
0.342
0.571
0.156
-0.169
-0.494
-0.037
0.705
0.343
-0.295
-1.105
-0.606
-0.380
-0.194
-0.162
-0.624
0.091
-0.151
-0.369
0.108
-0.457
-1.024
0.102
-0.130
0.348
-0.386
-0.690
-0.443
-0.294
-0.346
-0.137
-0.546
-0.924
-0.242
-0.339
-0.127
0.513
-0.064
-0.144
-1.086
-0.653
0.475
0.035
-0.592
-0.144
-0.366
-0.920
0.299
-0.788
0.063
-0.267
-0.198
0.581
0.401
-0.983
-0.439
-0.103
-0.174
0.730
0.138
-0.689
-1.267
0.112
-0.093
0.366
0.620
-0.213
-0.448
0.561
0.253
-0.614
-0.072
-0.115
-0.238
-0.031
0.314
0.328
-0.146
-0.386
-0.062
0.442
-0.320
-0.509
0.253
0.139
-0.079
0.176
-0.345
-0.903
-0.305
-0.519
-0.292
0.110
-0.072
0.078
-0.899
0.188
-0.203
-0.247
-0.295
0.077
0.279
0.172
-0.038
-0.168
0.059
-0.344
-0.869
-1.315
-0.280
0.219
-0.628
-0.079
0.184
-0.249
-0.160
-0.036
-0.777
0.065
-0.160
-0.196
0.190
-0.821
-0.386
0.217
0.333
0.026
-0.108
-0.599
-0.166
0.531
-0.037
0.305
-0.325
0.387
0.133
-0.240
0.375
0.213
0.478
0.036
-0.426
-0.491
0.566
0.061
-0.188
-0.526
0.160
-0.979
-0.129
-0.109
0.008
0.283
-0.203
-0.827
0.002
-0.523
0.425
-0.170
-0.133
-1.092
-1.172
-0.555
-0.096
-0.684
-0.268
0.690
-0.054
0.406
0.225
0.104
0.474
0.912
-0.366
0.011
-0.359
0.276
0.082
0.070
0.618
-0.554
-0.665
-0.903
-0.088
0.179
0.264
0.031
-0.395
-0.989
0.134
-0.014
0.162
-0.515
-0.469
0.063
0.447
0.529
0.454
0.169
0.446
-0.008
-0.033
-0.027
-0.532
-0.026
-0.594
-0.205
-0.708
0.024
0.031
0.053
-0.845
-0.568
0.576
0.151
-0.508
0.423
-0.146
-0.684
-0.494
0.198
-0.494
0.326
-1.364
-1.345
-0.097
0.326
-0.227
-0.144
0.450
-0.514
-0.363
-0.786
-0.648
0.537
-0.040
-0.496
-0.631
-0.909
-0.851
-1.052
0.135
0.024
-0.008
0.289
-0.347
-0.932
-0.923
-0.056
-0.590
0.198
-0.133
0.063
-0.694
0.182
0.432
-0.425
0.313
-0.119
0.205
0.031
0.267
-0.039
-0.195
0.579
0.329
-0.545
0.106
-0.573
0.038
0.123
0.103
0.358
-0.530
0.015
0.438
-0.096
0.195
-0.229
-0.423
-0.236
-0.504
0.242
-0.273
-0.116
-0.773
0.015
-0.355
-0.258
-0.984
-0.460
-0.599
0.429
0.331
0.344
-0.427
-0.074
0.195
0.027
0.173
-0.210
-0.003
-0.297
-0.617
-0.378
-0.283
0.634
-0.936
0.207
0.278
0.423
0.037
0.002
0.559
0.410
0.312
0.610
0.128
0.752
0.366
-0.143
0.292
-0.037
-0.001
0.050
0.549
0.224
0.358
0.477
0.522
0.429
0.374
-0.498
0.542
0.435
0.127
0.377
0.369
0.318
-0.789
0.395
0.082
-0.689
-0.129
0.720
-0.570
-0.114
-0.673
-0.726
0.415
0.233
-0.147
0.404
0.169
0.423
0.345
0.384
-0.271
-0.053
0.167
0.013
-0.265
-0.083
-0.239
0.179
0.381
-0.181
-0.617
0.119
0.188
0.126
0.045
0.367
0.076
0.072
-0.827
-0.208
0.405
0.457
0.144
0.470
-0.637
-0.445
0.383
0.414
0.167
0.183
-0.192
0.195
-0.223
0.256
-0.218
-0.219
-0.070
0.521
0.308
-0.226
0.679
-0.568
-0.393
-0.238
0.500
-0.286
0.307
0.062
-0.034
0.375
0.418
0.576
0.497
0.223
0.059
-0.752
-0.285
-0.378
0.269
0.076
0.346
-0.784
-0.321
0.239
0.270
-0.744
-0.033
0.348
0.273
0.497
0.155
0.479
-0.549
-0.349
0.641
0.100
0.554
0.111
0.055
0.114
0.405
0.568
0.488
0.127
0.384
0.261
-0.154
0.163
-0.043
0.444
0.550
-0.054
0.509
0.329
0.685
0.662
0.254
0.330
0.577
0.435
0.279
0.380
-0.153
0.296
-0.182
0.327
-0.271
0.359
0.301
-0.702
0.006
0.300
0.058
0.529
-0.074
-0.443
0.479
0.390
0.354
0.124
0.203
-0.186
0.297
-0.615
-0.201
0.304
0.004
-0.230
-0.864
-0.018
-0.129
0.138
-0.925
0.517
0.206
-0.186
0.656
0.740
0.263
-0.528
-0.490
0.183
0.289
0.263
-0.218
0.029
0.197
-0.061
0.013
0.211
0.011
0.210
-0.206
0.175
0.055
0.058
-0.032
0.192
0.010
0.583
0.475
-0.061
-0.018
0.173
0.176
-0.662
-0.174
0.183
0.532
-0.158
0.505
0.915
0.851
-0.103
0.314
-0.543
-0.680
0.023
0.181
0.666
-0.206
0.077
-0.036
0.222
-0.389
0.698
-0.807
0.291
0.263
-1.279
0.008
0.425
-0.751
0.165
0.663
-0.220
-1.081
-0.246
0.052
0.218
0.189
0.064
-0.194
0.077
0.214
-0.542
-0.309
0.002
0.611
-0.191
-0.147
-0.340
-0.747
0.404
0.783
0.186
-1.074
-0.342
-0.273
0.238
0.218
-0.883
0.109
0.762
-0.430
-0.265
-0.350
0.012
0.001
-0.397
-0.640
-0.337
0.373
-0.497
0.174
0.586
0.187
-0.674
0.143
0.145
0.489
0.338
0.349
0.505
-0.171
0.484
-0.576
0.228
-0.528
0.265
0.132
-1.133
-0.717
-0.135
0.293
0.734
0.181
0.406
-0.299
0.604
0.607
0.153
0.131
-0.037
0.892
0.362
0.140
-0.744
-0.109
0.208
0.344
0.582
0.183
0.222
0.331
0.385
0.147
0.616
0.024
-0.120
0.287
0.120
0.145
0.485
0.728
-0.443
0.123
-0.298
-0.681
-0.210
-0.218
-0.449
-0.550
-0.933
-0.900
-0.096
0.173
0.103
0.099
0.077
-0.510
0.202
0.046
-0.368
-0.106
-0.195
0.169
-0.235
0.119
0.209
0.106
0.544
0.023
0.105
0.124
0.350
0.025
-0.377
0.548
0.043
-0.331
-0.096
0.756
-0.210
-0.674
-0.600
-0.482
-0.485
0.682
0.038
-0.411
-0.604
-0.956
0.010
-0.573
-0.228
-0.162
-0.170
0.416
0.287
0.056
-0.058
0.955
-0.152
-0.576
-0.169
-0.169
0.107
-0.311
0.236
-0.079
0.223
0.826
0.527
0.579
0.155
0.640
0.138
0.417
0.249
0.314
-0.210
-0.183
-0.155
0.411
-0.166
-0.506
0.050
0.150
0.628
0.312
-0.422
0.415
0.377
-0.089
-0.418
0.160
0.519
0.501
0.438
-0.056
0.471
0.727
0.017
-0.402
-0.054
-0.083
-0.075
0.182
0.025
-0.210
0.289
-0.311
-0.166
0.225
0.090
0.173
0.175
0.321
-0.140
0.293
-0.014
0.168
-0.165
-0.104
0.337
-0.464
-0.203
0.466
0.246
0.527
0.340
0.270
0.371
-0.753
-0.212
-0.026
0.289
-0.221
0.191
-0.679
-1.398
-0.096
-0.421
0.942
0.071
0.244
-0.079
-0.674
-0.813
-0.570
-0.065
-0.492
0.476
0.149
0.078
-0.771
0.149
-0.364
-0.503
-0.351
0.187
-1.386
0.111
-0.436
-0.501
-0.124
0.207
-0.578
0.410
-0.371
0.064
-0.079
-0.401
0.118
-0.396
-0.093
-0.414
0.068
-0.754
-0.169
-0.350
-0.039
0.419
-0.118
0.562
0.526
-0.152
0.132
0.198
0.334
-0.135
0.376
0.177
0.340
0.188
-1.026
0.079
-0.512
-0.097
0.558
0.393
0.202
-0.135
-0.546
-0.104
-0.002
-0.339
-0.365
-0.380
0.282
-0.039
0.322
0.180
0.256
0.014
0.560
0.523
0.503
0.354
0.206
-0.009
0.717
0.166
0.456
-0.183
0.416
-0.226
0.360
-0.862
-0.825
-1.012
-0.142
0.065
-0.805
-0.671
-0.636
0.004
-0.709
-0.037
-0.091
-0.042
0.210
0.010
0.419
-0.064
-0.505
-0.129
-0.495
-0.208
-0.179
-0.860
0.015
-0.170
0.129
-0.219
-0.317
-0.699
-0.326
0.075
0.113
0.500
0.082
-0.059
0.081
0.653
0.229
0.228
0.485
0.053
-0.338
0.308
0.260
-0.251
0.214
-0.119
0.057
0.134
0.644
0.333
-0.598
-0.582
0.003
0.216
0.036
0.207
-0.291
0.008
-0.734
-0.380
0.036
0.115
0.182
0.152
-0.156
-0.432
-0.093
-0.661
-0.776
-0.976
0.135
-0.327
0.323
-0.479
-1.252
0.452
-0.607
-0.610
-0.332
0.223
0.180
0.058
0.165
-0.067
0.334
0.231
-0.476
0.434
-0.466
-0.252
-1.167
0.336
-0.674
-0.043
-0.091
0.170
-0.225
-0.075
0.410
-0.099
0.407
0.792
0.199
0.421
-1.008
0.587
0.158
-0.768
-0.527
-0.893
-0.356
-0.412
0.392
0.159
-0.597
-0.278
-0.531
0.766
-0.439
-0.334
-0.871
-0.607
-0.406
-0.463
0.175
0.176
0.429
-0.351
0.238
0.354
0.056
0.576
0.260
0.143
0.240
-0.508
0.139
-0.243
-0.485
0.087
0.091
0.122
-0.076
0.718
0.007
-0.005
-0.697
-0.647
-0.666
-1.140
0.143
-0.812
0.081
0.164
-0.460
-0.109
0.507
-0.308
-1.013
0.150
-0.036
-0.248
-1.285
-0.816
0.239
0.205
-0.854
0.047
0.361
0.222
0.037
0.049
-0.164
0.166
-0.671
0.595
-0.046
-0.473
0.111
-0.165
-0.800
0.105
-0.575
-0.229
-0.194
0.458
0.450
0.474
0.448
0.038
-0.171
-0.843
0.222
0.014
0.312
0.365
0.416
-0.297
-0.678
-1.378
-0.292
-0.423
0.260
-0.342
0.230
-0.083
0.044
0.151
0.605
-0.424
-0.255
-0.187
0.710
-1.342
-0.007
-0.545
-0.349
-0.920
0.148
-0.597
0.683
0.262
0.051
-0.436
-0.731
-0.496
0.266
-0.810
-0.562
0.171
-0.166
0.093
0.213
-1.200
-0.255
-0.923
-0.091
0.287
-0.109
-0.285
0.027
0.300
0.207
0.007
-0.169
0.682
-0.440
0.024
-0.649
0.471
0.302
-0.237
0.230
-0.164
0.409
0.353
-0.388
-0.927
-0.469
0.421
0.454
-0.943
-0.429
0.131
0.526
0.379
-0.332
0.080
0.143
-0.449
-0.913
0.359
-0.033
0.098
0.191
0.442
-0.571
0.107
-0.350
-0.488
0.262
-0.135
0.326
-0.048
-0.394
0.139
-0.199
-0.315
0.004
-0.328
-0.751
-0.074
0.458
0.081
0.264
-0.052
-0.801
0.040
0.160
-0.394
0.125
0.031
-0.342
0.176
-0.127
-0.433
-0.606
-0.026
0.551
-1.046
0.391
-0.418
-0.016
-0.119
-0.007
-0.328
0.276
0.529
-0.143
-0.344
-1.279
-0.925
0.052
-0.654
0.387
-0.597
-0.813
-0.748
-0.443
-0.540
0.438
-0.958
-0.113
-0.408
-0.037
0.068
0.730
-0.240
0.263
-0.537
-0.279
0.384
-0.741
0.317
-0.133
-0.197
0.273
-0.765
-0.340
0.399
0.028
-0.101
-0.373
0.033
-0.329
0.193
-0.095
0.192
0.197
0.346
-0.164
0.188
0.395
-0.206
0.388
-0.154
-0.032
0.074
0.092
0.013
-0.040
-0.027
0.036
-0.604
-0.029
-0.923
0.471
0.251
0.017
-0.370
-0.912
0.378
0.051
-0.133
0.108
-0.402
0.237
-0.256
0.567
0.567
-0.813
-0.695
-0.013
-0.540
-0.984
-0.134
0.557
0.066
0.145
0.047
0.403
-0.153
-0.882
-0.373
0.178
0.112
-1.044
-1.152
-0.267
-0.049
-0.795
-0.917
0.171
0.366
-0.280
0.374
0.312
-0.380
0.010
-0.426
-0.509
0.478
-0.182
-0.529
0.336
0.035
0.378
-0.138
-0.120
-0.521
-0.349
-0.500
0.225
-0.515
0.289
-0.108
0.089
0.596
-0.092
0.256
0.143
-0.944
0.466
0.246
-0.077
-0.423
0.076
-0.015
-0.573
-0.342
0.040
0.529
0.320
-0.002
0.212
0.306
0.197
-0.179
0.775
-0.023
0.287
0.322
-1.021
0.458
-0.324
-0.337
0.251
0.319
0.263
0.358
-0.072
-0.102
-0.497
-0.529
0.407
0.351
0.089
0.152
-0.041
-0.554
-0.819
-0.459
-0.151
-0.510
0.123
-0.128
0.143
0.214
0.513
-0.098
0.286
-0.197
-0.537
0.408
-0.683
0.156
0.040
-0.113
0.447
-0.306
0.167
-0.524
-0.279
0.488
0.332
0.036
0.284
0.676
0.261
0.137
0.190
0.199
-1.063
0.597
-0.068
0.313
0.080
0.224
0.173
-0.229
0.844
0.456
0.336
0.067
-0.066
0.380
0.457
0.079
0.347
0.727
-0.237
-0.056
0.499
-0.013
-0.104
-0.228
0.028
-0.421
0.035
0.048
-0.333
0.054
0.412
0.137
0.263
-0.736
-0.346
0.219
0.019
-0.351
0.326
-0.004
-0.946
-0.021
-0.048
0.157
-0.402
-1.190
0.068
-0.123
-0.377
-0.855
0.192
-0.362
-0.003
0.053
-0.174
-0.135
0.475
-0.060
-0.181
-0.255
0.593
0.220
-0.928
-0.321
-0.174
0.043
0.011
-0.155
-0.186
-0.220
-0.737
0.284
-0.025
-0.629
-0.088
-0.566
0.103
-0.091
-0.343
-0.333
0.380
-0.417
0.228
-0.208
0.139
0.600
0.015
-0.122
-0.126
0.399
0.268
0.332
-0.183
-0.675
0.147
-0.585
-0.240
-0.425
-0.039
0.169
-0.378
-0.336
0.035
0.190
-0.203
-1.124
0.023
0.137
-0.168
0.080
-0.686
-0.421
-0.261
-0.410
0.101
0.047
-0.185
-0.373
-0.064
-0.004
-0.050
0.222
-0.369
-0.368
0.031
0.330
-0.507
-0.206
0.173
0.030
0.125
-0.203
-0.780
-0.537
0.154
-0.366
-0.905
0.206
-0.486
-0.790
-0.458
-0.054
0.375
-0.604
-0.389
-0.511
-0.438
0.223
-0.001
0.595
-0.563
0.191
0.320
-0.114
0.085
-0.175
-0.405
0.364
0.277
-0.147
0.176
-0.302
-0.088
-0.034
-0.033
-0.202
-0.957
-0.596
-1.030
-0.022
0.246
-0.341
0.251
0.159
-1.024
0.146
0.120
0.012
-0.072
0.106
-0.349
-0.279
-0.312
-0.029
0.162
-0.066
-0.060
0.625
-0.166
0.112
0.309
-0.082
-0.585
-0.197
0.190
-0.431
-0.600
0.207
-0.677
-0.219
-0.955
0.146
-0.152
-0.497
-1.200
-0.212
-0.273
-0.688
-0.369
0.317
0.005
0.381
-0.023
-0.806
0.115
-0.794
-0.663
-0.524
0.353
-0.587
-0.213
0.087
0.513
0.126
-0.065
-0.256
-0.216
0.222
-0.349
-0.845
-0.562
0.309
-0.219
-0.501
-0.471
-0.003
-0.193
0.167
-0.482
0.130
0.357
0.701
-0.257
-0.280
0.084
-0.087
0.045
-0.286
-0.205
0.217
-0.031
0.340
0.048
-0.563
0.545
-0.250
-0.101
-0.881
0.442
-0.538
-0.216
-0.050
-0.348
-0.347
-0.453
-0.288
-0.273
0.283
-0.195
-0.008
0.253
-0.085
0.123
0.315
0.041
0.156
-0.129
-0.804
0.188
-0.158
0.285
0.115
0.232
-1.040
0.339
0.364
-0.360
-0.674
-0.535
-0.386
0.219
-0.489
-0.214
0.073
0.162
-0.058
-0.886
0.077
0.386
-0.108
0.469
0.361
0.203
-0.147
0.402
-0.459
0.421
-0.022
-0.431
-0.239
0.332
-0.265
-0.971
-0.104
0.087
-0.415
-0.180
-0.605
0.119
0.242
0.324
-0.222
0.043
0.122
0.228
0.327
0.487
-0.074
-0.353
-0.098
0.237
-0.525
-0.595
0.091
-0.076
-0.210
0.264
0.171
0.141
0.071
0.100
-0.232
-0.180
0.215
0.724
0.294
-0.233
-0.140
-0.213
-0.337
0.419
-0.051
0.065
-0.031
0.621
0.234
0.215
-0.156
0.498
-0.655
-0.049
0.383
0.074
0.448
0.188
-0.241
0.242
-0.699
-0.516
-0.341
-0.114
-0.167
-0.102
-0.301
0.523
-0.090
0.543
0.063
0.355
-0.186
0.802
-0.236
0.290
0.112
0.208
0.424
0.436
0.038
0.046
-0.027
0.185
-0.534
0.605
-0.064
-0.067
-0.355
0.191
0.369
-0.188
-0.507
-0.138
-0.113
-0.685
0.142
-0.257
-0.336
0.275
-0.106
0.457
0.329
0.078
-0.073
0.453
-0.159
0.088
0.177
0.062
0.136
0.495
0.351
-0.148
0.221
-0.264
-0.080
-0.330
-0.403
0.044
0.409
-0.329
-0.464
-1.321
0.272
-0.680
-0.664
-0.351
0.062
-0.748
-0.702
-0.103
-0.449
0.052
0.150
-0.328
-0.096
-0.385
0.177
0.037
0.395
0.300
0.008
-0.933
0.039
-0.202
0.192
-0.242
0.151
-0.138
-0.384
0.423
-0.389
0.121
0.255
-0.181
-0.078
0.367
-0.071
-0.228
-0.559
0.109
0.151
0.390
0.319
-0.526
-0.370
0.260
-0.328
-0.283
-0.356
-0.037
-0.481
-0.408
0.274
-0.287
-0.740
0.093
-0.063
0.376
0.370
-0.484
0.058
0.144
0.007
0.161
0.150
0.269
0.433
-0.643
-0.547
-1.312
0.388
-0.262
-0.368
-0.280
-0.677
-0.755
0.170
-0.158
-0.052
-0.057
0.218
-0.213
-0.627
-0.561
0.363
0.000
-0.247
-0.111
0.153
0.584
0.244
0.284
-0.106
0.383
-0.590
-0.337
0.191
-0.003
0.086
0.244
0.181
-0.240
-0.363
-0.452
-0.078
-0.179
-1.025
-0.181
0.247
-0.344
0.128
-1.917
-0.246
0.349
0.397
-0.134
0.262
-0.501
-0.122
-0.402
0.377
0.124
-0.091
-0.688
-0.363
0.124
0.189
-0.058
-0.560
-0.050
-0.120
-0.392
-0.599
-0.049
0.199
-0.027
0.053
-0.081
0.405
-0.164
0.673
0.401
-0.308
-0.064
0.378
0.347
-0.113
0.223
-0.101
0.323
-0.365
0.326
-0.382
-1.215
0.614
0.042
-0.890
-0.241
-0.309
0.404
0.151
0.459
-0.428
-0.406
0.144
0.160
-0.041
-0.115
0.357
-0.369
-1.196
-0.413
0.221
-0.100
-0.087
-0.323
-0.067
-0.174
-0.664
0.422
0.271
0.224
0.189
-0.338
-0.445
0.044
-0.012
-0.938
-0.332
-0.476
-0.473
-0.247
-0.471
0.104
-0.236
-0.149
-0.597
0.141
-0.046
0.519
0.455
0.561
-0.631
-0.332
0.264
-0.984
0.142
-0.479
0.194
-0.849
-0.501
0.294
-0.131
-0.358
0.276
0.476
0.016
0.067
0.285
-0.345
0.780
-1.222
0.017
0.152
-0.871
-0.342
-0.035
-0.580
0.378
-0.046
0.474
0.108
0.070
0.136
-0.399
-0.438
0.057
0.110
0.292
-0.085
-0.587
-0.207
0.119
0.401
-0.519
-0.545
0.244
-0.057
-0.378
0.251
-0.017
0.007
-0.059
-0.844
-0.950
-0.211
-0.343
-0.336
-0.638
0.071
0.378
-0.362
-0.559
0.037
-0.307
0.070
0.033
-0.338
-0.340
0.046
-0.851
0.123
-0.249
-0.034
-0.455
-0.325
-0.428
0.197
0.083
0.420
0.080
0.456
0.519
-0.447
-0.770
-0.330
-0.341
0.401
0.390
0.017
0.573
0.669
0.236
-0.532
-0.754
0.073
0.153
-0.346
0.101
0.142
0.187
-0.105
-0.253
0.365
-0.281
-0.081
0.240
-0.009
0.423
-0.048
0.042
-0.069
0.107
0.036
-0.272
-0.796
0.125
0.005
-0.165
0.255
-0.029
-1.251
0.128
-0.726
-0.229
-0.074
-0.083
0.105
-0.120
0.374
-0.116
-0.182
0.802
-0.155
-0.477
-0.239
0.229
-0.532
-0.361
-0.675
-0.179
-0.307
0.110
-0.377
0.295
0.162
-0.540
-0.270
0.165
0.176
0.287
0.598
0.809
-0.072
0.037
-0.534
0.481
0.064
0.117
-0.768
0.640
-0.082
-0.208
-0.032
0.602
-0.418
-0.096
0.242
-0.249
0.102
0.304
0.307
-0.578
-0.354
0.059
-0.202
0.198
-0.726
-0.628
-0.004
-0.045
0.301
0.105
0.294
0.278
0.082
0.065
-0.171
0.152
0.640
-0.347
0.149
0.297
0.303
-0.818
-0.267
0.007
0.355
0.074
0.163
-0.626
0.418
-0.409
0.247
-0.690
-0.221
0.481
0.590
-1.172
-0.696
-0.337
0.081
-0.280
-0.702
0.370
0.380
0.673
-0.512
-0.247
0.172
0.267
-0.584
0.304
0.547
0.352
-0.149
0.208
0.752
0.489
-0.347
-0.672
0.058
-0.198
0.415
0.404
-0.247
-0.229
-0.482
-0.344
-0.052
-0.098
0.420
-0.008
0.530
0.129
0.371
0.328
-0.042
-0.253
-0.066
-0.302
-0.742
0.108
0.457
0.130
-0.145
0.057
0.449
-0.016
-0.005
-0.329
0.125
0.138
0.151
-0.311
0.472
-0.007
0.381
0.382
-0.484
0.277
0.559
-0.336
0.519
-0.015
0.288
-0.280
-0.375
-0.187
-0.397
-0.671
-0.411
0.662
0.085
0.440
-0.888
-0.017
-0.176
0.534
-0.437
-0.016
-0.086
0.196
-0.089
-0.375
-0.665
0.257
-0.082
-0.393
0.110
0.610
-0.800
-0.418
-0.310
0.279
0.019
-0.184
0.037
0.187
0.147
0.197
-0.048
0.512
0.074
0.105
-0.022
0.480
0.210
0.782
0.181
0.018
-0.338
0.284
0.288
0.293
-0.302
-0.030
-0.510
-0.077
-0.052
-0.686
-0.491
-0.614
-0.422
-0.265
-0.683
-0.180
0.370
0.058
0.335
-1.106
-0.409
0.053
0.214
0.189
-0.205
0.182
0.335
-0.081
-0.087
0.314
0.012
0.387
0.298
0.263
0.030
-0.151
0.485
-0.014
-0.598
-0.049
-0.296
-1.194
-0.275
0.448
-0.154
0.204
-0.072
-0.154
-0.147
-0.504
-0.113
0.040
-0.081
0.195
0.197
0.111
0.579
0.168
-0.266
-0.026
0.153
-0.073
0.003
0.055
0.186
-0.409
-0.365
-0.297
-0.817
0.523
0.059
-0.646
-0.244
-0.330
-0.189
0.166
0.369
0.561
-0.257
0.083
0.227
-0.488
-0.025
0.496
0.145
0.316
-0.352
0.287
0.040
-0.335
0.458
-0.699
-0.344
0.319
0.157
-0.247
0.193
0.668
0.387
-0.435
0.339
0.212
0.549
-0.251
-0.042
-0.505
-0.405
-0.759
-0.181
-0.447
-0.691
-0.030
0.286
-0.650
0.024
-0.271
-0.006
0.500
-0.163
0.190
0.050
0.221
-0.046
0.081
-0.666
0.168
0.060
-0.326
-0.037
0.598
-0.780
-0.829
-0.758
0.617
-0.095
-0.022
0.004
-0.147
0.315
0.448
-0.720
-0.088
-0.470
0.436
0.123
0.482
0.261
-0.304
0.389
-0.073
-0.956
0.288
0.181
0.097
0.049
0.064
0.060
0.326
0.051
-0.341
0.550
0.331
0.209
0.164
0.032
0.187
-0.431
-0.546
0.273
0.061
0.174
0.047
-0.056
-0.000
0.544
0.672
0.431
-0.185
0.217
-0.014
0.076
0.924
0.732
-0.957
-0.020
0.192
-0.024
-0.064
0.007
-1.025
-1.434
-0.364
-0.340
0.453
-0.816
0.251
0.330
-0.092
-0.563
0.352
0.019
-0.308
-0.242
-0.064
-0.276
0.590
0.462
-0.728
-0.660
0.217
-0.381
0.315
0.369
-0.619
0.024
0.337
-0.432
-0.454
-0.112
-0.416
0.154
0.354
0.189
-0.624
-0.605
-0.286
-0.216
-0.314
0.225
-0.202
-0.714
0.407
-0.843
0.009
-0.155
0.150
0.063
0.205
-0.589
0.011
-0.016
0.308
-0.240
-0.353
0.190
-0.038
-0.373
-0.317
0.148
0.571
0.203
-0.041
-0.129
-0.081
0.098
0.005
-0.208
0.130
0.048
0.390
0.268
-0.195
-0.842
-0.313
0.616
0.343
-0.352
0.131
-1.004
-0.297
-0.335
0.106
-0.593
0.065
-0.496
0.118
-0.332
0.169
0.496
0.252
-0.111
0.061
-0.006
-0.128
0.034
0.380
0.241
0.078
0.138
0.827
0.062
0.201
-0.313
0.152
0.062
0.128
0.244
-0.788
-0.770
0.013
0.139
-0.065
-0.301
-0.949
-0.203
-0.063
-0.705
-0.055
0.053
-0.239
0.289
-0.211
0.215
0.486
0.259
0.071
-0.220
-0.226
0.097
-0.026
-0.150
0.291
0.234
0.390
-0.469
-0.539
-0.342
-0.002
-0.163
-0.684
0.040
0.181
0.134
-0.229
-0.022
-0.705
-0.157
-0.210
0.198
-0.167
0.120
-0.074
0.412
0.283
0.170
0.396
0.164
-0.025
0.178
0.248
0.153
0.279
0.589
-0.346
0.153
0.113
0.809
-1.183
-1.262
0.444
-0.091
-0.314
-0.596
0.002
-0.179
0.516
0.407
-0.109
-0.596
-0.240
-0.314
0.008
0.156
0.064
0.816
0.471
-0.038
-1.064
0.157
0.607
-0.108
-0.059
-0.293
-0.103
0.104
-0.525
0.312
0.533
0.114
-0.181
0.147
-0.033
0.420
0.091
0.149
0.161
-1.385
0.037
0.482
0.097
-1.295
0.166
-0.026
-0.119
0.031
-0.326
0.049
0.499
-1.089
-0.150
0.182
0.411
0.008
-0.106
0.187
0.117
0.064
0.050
0.273
0.270
0.186
0.280
-0.316
0.175
0.256
0.180
0.191
0.481
0.133
0.351
-0.497
0.191
0.202
0.045
0.190
-0.697
-0.161
0.071
0.413
0.112
-0.742
-0.421
0.178
0.074
0.450
0.065
0.385
-0.760
0.262
0.174
0.121
-0.368
-0.197
-0.156
0.005
0.268
0.245
0.058
0.414
0.186
0.365
-0.209
0.410
0.162
0.052
-0.085
0.191
-0.088
-1.464
0.097
-0.164
-0.309
-0.141
0.212
-0.351
-0.362
0.132
0.821
0.080
0.122
-0.087
0.648
-0.007
-1.234
0.009
0.408
-0.118
0.337
0.149
0.373
0.564
-0.423
0.012
0.136
0.003
0.021
0.011
-0.099
0.521
-0.156
0.352
0.137
-0.309
-0.050
0.301
-0.218
-0.630
-0.057
0.072
-0.060
0.194
0.041
-0.065
0.209
0.087
0.219
0.496
0.034
0.070
0.252
0.277
0.169
0.190
0.404
0.026
-0.325
0.051
-0.002
0.195
0.553
0.206
-0.224
0.049
0.057
0.547
0.340
0.062
0.355
0.185
-0.061
0.419
-0.107
0.047
0.231
0.261
0.245
0.558
0.372
0.073
0.169
0.734
0.529
-0.288
-0.315
0.051
-0.511
-0.254
0.083
-0.207
-0.718
-0.773
0.028
-0.324
0.276
0.844
0.463
-0.017
-0.090
-0.169
-0.156
-0.159
0.758
0.107
0.258
0.635
0.196
-0.270
0.408
0.296
0.186
-0.501
0.182
0.667
-0.329
-0.210
0.734
0.226
0.006
-1.097
0.122
-0.308
-0.321
-0.107
-0.071
0.209
0.133
-0.591
-0.476
0.025
0.072
-0.129
-0.347
0.048
0.384
0.064
-0.183
-0.034
-0.035
-0.188
0.031
0.467
0.201
0.223
0.052
0.416
0.064
0.498
0.199
0.404
0.200
0.064
-0.233
0.210
-0.516
0.662
0.274
0.428
0.157
0.045
-0.446
0.242
0.037
0.172
0.127
-0.483
0.510
-0.499
-0.210
-0.688
0.050
-0.462
-0.423
0.207
0.155
0.272
0.094
-0.390
0.373
-0.357
0.157
-0.218
0.186
0.029
0.368
0.080
0.485
0.046
-0.400
-0.168
-0.047
-0.215
-0.023
0.157
-1.291
-0.608
-0.572
-0.095
-0.661
-0.641
0.029
-0.054
0.287
-0.010
-0.193
0.063
0.408
0.171
0.415
0.137
0.127
-0.284
-0.007
0.027
-0.095
-0.047
0.025
-0.061
0.189
0.089
0.059
0.348
0.649
0.018
0.167
-0.238
-0.397
0.059
-0.845
0.830
0.038
-0.246
-0.462
-0.315
0.057
0.064
0.067
-0.100
0.410
0.247
0.238
-0.449
-0.201
-0.159
0.402
-0.819
-0.212
0.286
0.473
0.120
-0.050
0.254
-0.062
0.120
-0.313
-0.413
-0.395
0.394
-0.579
-0.057
-0.231
-0.014
0.345
0.194
-0.178
0.170
0.553
0.408
0.630
0.165
0.199
0.146
-0.200
0.187
0.073
-0.341
-0.152
0.448
0.425
0.133
0.382
0.024
0.293
-0.005
0.270
0.593
0.480
0.475
-0.176
0.123
0.205
0.194
-0.539
-0.514
-0.086
0.086
-0.287
-0.996
0.268
0.504
0.229
0.306
-0.888
0.047
-0.187
0.263
0.572
-0.177
-0.190
0.203
0.219
0.058
-0.327
-0.092
0.144
-0.043
-0.724
0.168
0.295
0.648
0.284
0.040
0.209
0.314
0.252
0.426
0.657
0.051
0.477
-0.268
-0.213
0.078
0.294
0.522
-0.061
0.034
-0.025
0.565
0.253
-0.090
0.084
0.067
0.058
0.063
-0.246
0.051
0.064
0.147
0.301
0.885
0.439
0.214
-0.267
-0.339
0.011
-0.080
-0.558
0.029
0.384
-0.013
-0.056
0.201
0.213
0.061
0.476
-0.089
-0.007
0.083
0.083
0.619
0.412
0.136
0.196
0.474
0.302
0.100
0.139
0.444
0.478
0.208
-0.061
-0.353
0.309
-0.039
0.444
0.893
0.008
0.647
0.136
-0.482
-0.180
-0.183
0.158
-0.193
0.349
0.349
0.501
0.382
0.739
0.021
0.280
0.195
0.018
0.207
0.208
-0.644
0.589
-0.336
0.293
-0.201
-0.087
-0.066
-0.032
0.055
0.217
0.014
-0.104
-0.702
0.189
-0.038
0.411
0.086
0.914
-0.594
-0.543
-0.361
0.351
0.353
0.203
-0.189
0.386
0.221
0.072
0.410
0.064
-0.098
0.122
0.200
0.146
0.237
0.345
0.150
0.014
-0.350
0.702
0.228
0.202
0.050
0.519
-0.647
0.346
0.265
0.240
-0.184
0.526
0.353
0.033
-0.397
0.214
0.265
0.070
-1.002
0.048
0.053
0.261
0.189
0.269
0.057
0.329
0.202
0.177
0.069
0.316
-0.347
-0.297
0.150
-0.109
0.487
0.487
-0.212
0.454
-0.147
-0.631
-0.753
-0.224
-0.119
0.379
0.155
-0.035
-0.212
-0.605
-0.060
-1.542
-0.186
-0.172
0.688
0.080
0.196
-0.194
0.193
-0.408
-0.215
-0.458
-0.070
0.132
-0.018
0.152
0.080
0.031
0.061
-0.077
0.224
0.206
0.050
0.856
-0.079
-0.620
0.354
0.085
0.399
0.040
-0.100
-0.641
-0.098
-0.077
0.159
-0.066
-0.188
-0.054
0.204
0.143
0.069
-0.613
-0.415
0.229
-0.164
0.232
-0.245
-0.136
0.268
0.072
0.199
0.440
0.025
-0.769
-0.092
0.223
-0.079
0.527
0.393
0.411
0.030
0.133
0.059
0.080
0.104
0.203
0.169
0.135
0.193
0.305
-0.034
-0.709
0.039
-0.026
-0.060
-0.793
0.125
0.053
-0.382
-0.805
0.328
0.386
0.278
-0.357
0.188
-0.221
-0.107
0.384
0.058
0.128
0.264
-1.691
0.086
0.280
-1.361
0.059
-0.009
0.189
-0.046
-0.082
-0.084
-0.175
-0.185
0.264
-0.208
0.427
-0.416
0.295
0.542
-0.024
0.276
0.066
0.212
0.097
-0.074
-0.310
-0.082
0.047
0.073
-0.161
-0.303
-0.087
0.025
0.378
-0.341
0.280
-0.386
0.290
0.505
0.149
-0.607
0.136
-0.303
0.304
-1.106
-0.328
0.586
-0.773
0.080
0.031
0.142
-0.339
0.059
0.531
-0.806
-0.071
0.090
-0.240
-0.278
-0.486
-0.437
-0.361
-0.220
-0.590
0.329
0.480
0.201
0.094
0.069
-0.516
-0.043
-0.290
-0.971
0.295
0.239
0.475
-0.799
0.097
0.029
-0.233
-0.204
-0.077
0.454
0.062
0.054
0.468
0.175
-0.452
0.281
0.201
0.079
-0.726
-0.258
-0.910
-0.572
0.368
0.469
-0.295
0.038
0.138
-0.064
-0.444
0.408
-0.165
0.444
-0.177
-0.239
-0.070
-0.853
0.111
-0.178
0.226
0.006
0.444
-0.018
-0.925
-0.372
0.208
0.290
-0.056
0.268
-0.073
-0.452
-0.063
0.069
0.116
-0.189
-0.279
-0.192
0.570
0.558
-0.067
-0.150
0.179
0.195
0.188
0.319
0.631
0.071
-0.398
0.211
0.071
0.048
0.358
0.105
0.060
0.092
0.155
0.141
0.372
-0.138
-0.024
0.197
0.084
0.259
0.325
0.360
0.121
0.406
0.116
-0.060
0.019
0.059
-0.002
0.441
0.205
-0.501
-0.065
0.290
0.056
0.041
0.158
0.346
0.175
0.343
0.149
0.346
0.561
0.497
0.517
0.565
-0.925
0.659
0.292
-0.326
0.553
0.692
-0.186
0.493
0.186
0.173
-0.134
0.159
0.264
0.452
0.486
0.015
-0.020
0.056
0.060
0.101
-0.155
0.338
0.304
0.024
0.008
0.032
-0.054
0.504
0.201
0.093
-0.020
0.283
0.319
0.143
-0.061
0.043
0.800
0.058
0.112
0.017
0.483
0.040
0.279
-0.035
0.502
0.264
0.135
-0.324
0.186
-0.014
0.438
-0.008
0.048
0.063
0.138
0.179
0.383
0.009
0.124
0.623
0.104
-0.011
-0.182
0.045
-0.366
0.061
0.357
0.172
0.794
0.093
-0.059
0.487
0.404
-0.109
0.084
0.022
-0.198
0.343
0.275
0.369
-0.184
-0.180
0.170
0.307
0.382
0.402
0.191
0.104
-0.487
0.091
0.345
0.145
0.459
0.440
-0.037
0.442
0.177
-0.832
0.191
0.119
0.223
-0.600
-0.233
0.088
0.330
0.428
0.384
-0.421
-0.040
0.581
0.362
0.427
-0.326
0.053
-0.079
0.210
0.126
-0.843
-0.347
0.312
0.172
0.006
-0.163
-0.468
-0.495
0.006
0.079
0.947
0.020
-0.167
-0.335
-0.029
0.430
0.372
-0.026
0.253
-0.075
-0.088
-0.310
0.167
0.195
0.011
-0.084
0.245
-0.324
0.555
-0.037
-0.046
0.156
0.118
-0.108
0.357
-0.189
0.230
-0.287
0.016
-0.457
0.125
0.095
0.183
-0.086
-0.327
-0.183
-0.028
-0.176
0.045
-0.342
-0.191
0.914
0.353
0.187
0.242
0.363
0.245
-0.393
0.010
0.458
-0.326
0.079
0.281
0.367
0.385
0.115
0.360
0.161
0.292
0.477
0.700
0.085
0.287
-0.187
-0.324
-0.697
0.080
-0.086
-0.143
-0.107
0.270
-0.082
-0.195
0.177
0.554
-0.033
-0.168
-0.333
0.239
0.570
-0.010
0.202
-0.606
-0.168
0.674
-0.187
0.234
0.378
-0.027
0.069
-0.122
-0.349
0.288
-0.410
-0.694
-0.479
-0.115
-0.195
0.377
-0.363
-0.161
0.128
0.440
0.223
0.503
-0.494
-0.049
0.372
0.357
-0.177
0.535
-0.043
0.157
0.099
-0.381
0.302
0.266
-0.166
-0.330
-0.134
0.189
-0.707
0.379
-0.191
0.506
0.019
0.299
-0.274
0.238
-0.192
-0.549
0.107
0.248
-0.168
0.344
0.404
-0.297
0.326
-0.808
0.376
0.189
-0.066
-0.042
0.392
-0.091
0.517
0.548
0.522
-0.503
0.222
-0.042
-0.195
0.537
0.635
0.342
-0.168
0.736
-0.053
0.142
0.159
-0.670
0.195
0.024
-0.294
-0.013
-0.001
0.180
-0.923
-0.184
-0.632
-0.206
0.167
-0.127
0.188
0.154
-0.144
-0.337
-0.012
0.194
0.027
0.492
-0.409
-0.367
-0.089
0.400
0.066
-1.027
-0.400
-0.017
0.062
0.043
0.030
0.795
-0.153
0.074
-0.032
-0.496
-0.510
-0.716
-0.714
-0.331
0.332
0.356
-0.479
0.484
0.153
-0.477
-0.027
0.069
-0.134
0.552
-0.046
0.275
-0.274
-1.170
-0.001
-0.304
-0.643
-0.043
0.079
0.124
-0.117
-0.084
-0.087
-0.043
0.200
0.237
-0.039
0.428
0.116
-0.053
-0.006
-0.394
-0.801
-0.456
-0.532
0.062
-0.231
-0.209
-0.181
-0.078
-0.244
0.053
0.256
-0.292
0.188
0.024
0.190
-0.075
0.073
-0.871
-0.557
-0.189
0.179
0.135
0.546
-0.199
-0.200
-0.057
0.338
0.343
0.297
0.349
-0.056
0.366
0.571
-0.150
0.377
-0.406
-0.271
-0.323
-0.018
0.011
-0.073
0.175
0.625
-0.009
-0.823
0.166
-0.152
0.438
0.040
0.172
0.190
0.045
0.277
-0.040
-0.012
0.131
0.085
-0.898
0.377
-0.153
-0.030
-0.641
0.426
-0.254
-0.230
0.522
-1.159
0.095
-1.205
0.416
-0.291
-0.195
0.240
0.183
-0.058
0.371
0.117
0.227
0.265
0.079
0.006
-0.320
-0.514
0.060
0.513
0.014
-0.061
-0.009
-0.322
-0.295
0.656
0.513
-0.183
-0.135
0.106
-0.056
-0.729
0.099
0.046
0.619
0.040
0.471
0.103
-0.181
-0.211
-0.070
-0.125
-0.884
0.000
0.141
0.311
0.162
0.408
-0.336
0.031
-0.294
0.209
-0.097
-0.472
0.167
-0.565
0.291
0.183
-0.073
0.250
-0.310
0.345
-0.086
-0.269
0.574
0.005
0.034
-0.376
-0.618
-0.634
0.066
0.193
-0.284
0.398
0.076
0.278
-0.978
-0.602
0.209
-0.177
-0.245
0.244
-0.024
-0.100
0.344
-0.319
-0.035
0.049
-0.765
0.115
0.103
0.133
-0.466
0.036
-0.140
-0.562
-0.576
0.192
-0.315
0.256
-0.110
-0.375
0.246
0.210
-0.613
0.500
0.217
0.410
0.311
-0.011
0.005
0.142
-1.011
-0.255
0.159
-0.466
0.112
-0.106
-0.274
0.060
0.239
-0.395
-0.197
0.094
0.298
0.155
0.147
0.128
0.499
0.149
-0.293
-0.330
0.229
0.451
0.487
0.527
0.197
0.070
0.163
-0.524
0.743
0.554
-0.169
-0.255
0.216
0.078
-0.044
0.009
0.230
0.194
-0.251
0.365
-1.002
-0.213
-0.408
-0.083
0.214
-0.553
-0.440
0.303
-1.126
-0.139
0.406
0.151
0.315
-0.745
0.713
0.279
-0.185
0.650
0.124
-0.248
0.121
-0.216
0.029
-0.172
0.130
-0.546
0.059
0.287
0.339
0.412
0.070
-0.178
0.079
-0.675
0.254
0.280
-0.138
0.120
0.189
0.265
0.272
0.108
-0.147
0.251
-0.408
-0.051
0.225
0.143
0.064
0.299
-0.277
0.219
0.499
0.340
0.022
0.181
-0.246
-0.950
-0.817
-0.319
-0.157
-0.443
0.121
-0.046
-0.073
0.179
0.261
0.455
0.089
0.056
0.530
-0.052
0.359
-0.539
-0.253
0.269
0.260
0.122
-0.327
-0.221
0.075
0.200
-0.025
0.388
0.141
0.082
0.791
0.390
-0.462
0.076
0.089
-0.309
-0.214
-0.029
-0.196
-0.487
0.230
0.013
0.032
-0.504
0.104
-0.396
-1.487
0.134
-0.338
0.193
-0.299
-1.531
0.234
-0.956
-0.140
-0.799
-0.316
0.122
-0.152
-0.175
0.188
0.326
0.143
0.657
-0.072
0.353
0.009
-0.701
-0.055
-0.191
-0.611
0.010
0.016
-0.969
0.085
0.585
0.125
0.088
0.258
-0.022
0.429
0.375
0.375
0.004
-1.037
-0.760
0.526
-0.093
0.218
-0.019
0.026
-0.347
-0.045
0.302
0.073
0.469
0.501
0.346
0.109
0.565
-0.996
0.032
0.334
-0.144
-0.314
-0.310
-0.177
0.260
0.097
0.082
-0.667
0.624
-0.519
-0.947
0.146
0.072
0.197
-0.286
-0.330
-0.165
-0.493
0.461
-0.038
-0.145
-0.062
-0.235
-0.807
-0.530
-0.076
-0.518
0.180
0.019
-0.583
0.498
-0.421
-1.296
-0.186
0.201
0.206
-0.034
-0.756
0.200
-0.394
-0.191
-0.972
-0.204
0.161
-0.201
-0.353
0.005
0.219
-0.060
0.485
-0.114
0.188
-0.213
0.407
0.279
0.348
-0.784
-0.126
-1.066
0.152
-0.122
-0.107
-0.550
0.269
-0.519
0.322
-0.461
-0.136
-0.042
0.172
-0.076
-0.219
0.319
-0.254
0.485
0.704
-0.054
-0.200
0.309
-0.513
-0.344
-0.373
0.194
0.305
0.353
0.267
0.012
0.177
0.226
0.199
0.328
-0.176
-0.064
-1.652
0.343
-0.195
0.008
-0.163
0.319
-0.157
0.397
0.536
0.143
0.189
-0.097
0.285
0.318
0.041
-0.191
-0.189
-0.004
0.252
0.158
-0.344
-0.144
-0.115
0.418
-0.071
0.147
-0.153
-0.136
-0.172
0.602
-0.310
-0.370
-0.216
-0.493
-0.340
0.131
-0.061
0.212
-0.199
0.407
0.583
0.526
0.193
0.402
0.435
0.540
0.051
0.206
-0.400
0.078
-0.152
0.188
0.031
-0.321
-0.174
0.179
-0.106
-0.476
-0.079
0.367
0.466
-0.830
-0.819
0.014
0.279
-0.748
-0.147
0.052
0.347
-0.077
0.096
0.095
0.038
0.199
-0.915
-0.108
-0.050
0.253
0.027
0.384
0.183
-0.128
-0.173
0.250
0.147
0.351
-0.136
0.430
-0.441
-0.258
0.020
0.302
-0.445
-0.355
0.293
-1.394
0.039
-0.175
-0.197
-0.424
-0.274
-0.534
0.053
-0.419
0.422
0.207
0.367
0.382
0.335
-0.342
-0.126
-0.647
-1.635
-0.399
-0.247
0.119
-0.520
0.533
0.463
0.520
-0.437
-0.489
-0.027
-1.267
0.326
-0.004
-0.316
-0.950
0.246
-0.424
-0.221
-0.507
-0.128
0.329
0.224
-0.063
0.485
0.375
0.211
-0.351
0.078
-0.072
0.352
-0.052
0.049
0.183
-0.650
0.418
-0.499
0.040
-0.216
0.225
0.551
-0.169
0.226
-0.172
0.012
-0.137
0.838
-0.276
0.307
-0.419
-0.297
-0.075
0.082
-0.351
-0.608
0.190
-0.533
0.215
0.031
0.281
0.301
0.195
0.179
-0.123
-0.032
-0.125
0.333
0.215
0.149
-0.124
-0.742
-0.227
-0.391
-0.101
-0.641
0.436
0.143
-0.050
0.286
0.460
-0.429
0.534
0.101
0.251
0.102
0.044
0.255
0.427
-0.549
0.580
-0.048
-0.419
0.350
-0.021
0.105
-0.189
-0.072
0.320
-0.114
-0.038
-0.487
0.307
-0.678
0.157
-0.337
-0.554
0.040
-0.867
-0.389
-0.102
-0.123
0.228
0.216
0.330
-0.209
0.370
0.452
0.048
-0.306
-0.073
0.114
-0.509
-0.829
0.014
0.248
0.267
0.087
-0.046
0.337
0.492
-0.037
0.065
0.125
-0.616
-0.016
0.353
0.196
0.137
0.322
0.309
0.058
-0.574
-0.085
-0.380
-0.569
0.421
0.048
-0.722
-0.149
-0.138
-0.034
-0.005
0.118
0.548
-0.170
0.131
-0.420
-0.084
0.317
0.477
0.084
0.423
-0.058
0.256
-0.470
-0.031
0.210
0.172
0.024
0.086
-0.083
0.163
-0.196
0.774
0.199
0.629
-0.019
-0.056
0.089
-0.326
0.047
-0.096
0.286
-0.219
0.126
-0.803
-0.661
0.137
-0.024
0.226
-0.134
0.714
0.276
0.356
-0.026
0.320
-0.771
-0.087
0.496
0.440
0.473
0.562
0.030
0.131
-0.579
-0.005
-0.230
-0.180
0.337
0.570
0.073
0.277
-0.292
-0.165
0.305
0.390
0.076
0.029
0.010
0.127
0.401
0.170
-0.560
-0.063
-0.002
-0.170
0.163
-0.265
0.328
-0.346
0.157
-0.216
0.100
-1.416
0.569
-0.004
0.193
-0.012
-0.103
0.321
0.342
-0.119
0.025
-0.036
-0.096
0.101
-0.168
0.479
0.073
-0.489
0.478
0.308
-0.734
0.064
-0.314
0.064
0.153
0.038
0.242
-0.179
-0.008
0.070
0.465
0.108
0.352
-0.877
0.005
0.119
0.103
0.401
0.533
-0.094
-0.088
-0.455
-1.260
0.126
-0.026
0.342
0.507
0.254
0.412
-0.454
-0.372
-0.253
0.032
-0.036
-0.116
-0.033
0.009
0.276
-0.375
-0.120
0.175
-0.383
0.245
-0.800
0.028
0.063
0.081
0.615
-0.025
-0.036
0.263
-0.636
-0.347
0.046
0.241
0.123
-0.190
0.488
-0.232
-0.189
0.752
0.087
0.370
-0.339
0.287
-0.018
-0.310
-0.544
0.216
0.036
-0.080
0.045
0.125
-0.316
-0.048
0.381
-1.389
-0.038
0.528
-0.085
0.284
-0.178
0.153
0.178
0.267
-0.318
0.127
0.656
0.324
0.082
-0.154
-1.279
-1.251
0.338
-0.221
0.091
0.251
0.453
-0.375
-0.394
0.061
-0.092
0.259
0.177
-0.486
0.242
-0.497
-0.171
0.064
-0.143
0.136
-0.110
0.613
-0.467
-0.035
-0.190
0.233
0.167
0.221
-0.225
-0.127
0.195
0.644
-0.377
-0.286
0.143
-0.711
-0.216
0.293
-0.508
0.388
0.426
0.144
0.721
-0.604
-0.350
0.368
-0.250
0.249
-0.016
0.482
-0.473
-0.006
-0.335
0.087
-0.097
-0.085
0.499
-0.088
0.319
0.044
-0.016
-0.338
0.455
-0.028
0.081
0.147
-0.194
-0.083
-0.212
0.034
-0.817
-0.205
0.516
0.006
-0.044
-0.243
0.176
0.268
-0.303
-0.173
-0.204
-0.057
-0.699
0.366
0.223
-0.378
0.460
-0.302
-0.153
-0.893
-0.056
-0.014
-0.650
0.020
-0.025
0.147
-1.644
-1.077
0.222
0.130
-0.411
0.265
-0.047
-0.243
-0.176
-0.188
-0.151
-0.178
-0.950
0.077
-0.071
-0.204
-0.257
0.196
0.361
0.433
0.500
-0.071
0.803
-0.138
0.071
-0.165
0.018
-0.493
0.087
-0.387
0.268
-0.008
0.055
-0.361
0.244
0.077
-0.327
0.007
0.066
0.056
0.021
0.363
0.220
-0.347
0.074
0.242
0.127
0.334
0.487
0.036
0.049
-0.012
0.003
-0.179
0.158
-0.171
-0.451
0.155
-0.053
0.377
0.010
-0.949
-0.188
-0.152
0.126
-0.142
-0.000
0.178
-1.061
-0.040
-0.393
-0.247
0.227
-0.986
0.210
-0.163
0.703
-0.261
-0.205
0.350
0.443
-0.629
0.331
0.334
0.075
0.421
0.383
0.137
0.055
0.566
0.254
0.061
0.240
-0.047
0.353
0.024
-0.055
-0.181
-0.024
0.219
0.083
0.029
0.557
-0.055
0.171
0.366
-0.110
0.571
-0.905
-0.060
0.152
-0.275
-0.027
-0.176
0.223
-0.137
0.130
0.601
-0.628
0.058
-0.006
0.310
0.300
-0.573
-0.319
0.204
0.188
0.146
0.178
-0.099
-0.118
-0.344
0.090
0.282
-0.016
0.214
-0.014
0.402
-0.102
0.293
0.253
0.171
0.343
0.333
-0.183
0.362
-0.609
-0.182
0.316
0.282
-0.047
-0.018
-0.413
-0.042
-0.646
0.576
0.267
-0.126
-0.228
-0.196
0.125
-0.226
0.410
0.160
-0.247
0.086
-0.077
-0.431
0.222
-0.302
0.686
0.261
0.097
0.609
0.315
0.309
-0.316
0.333
0.435
-0.466
0.153
0.438
-0.060
-0.728
0.308
-0.015
0.342
-0.169
-0.069
0.248
-0.070
-0.196
-0.228
-0.172
-0.151
0.034
0.294
0.151
0.314
0.173
0.375
0.345
0.525
-0.248
0.317
-0.335
0.256
-0.051
0.280
0.078
0.313
0.165
-0.486
0.074
0.417
-0.315
0.117
-0.006
0.302
-0.063
-0.565
-0.626
0.321
0.585
0.031
-0.426
0.637
-0.621
0.396
-0.187
-0.395
-0.266
-0.666
-0.275
-1.052
0.341
0.221
-0.065
0.366
0.168
0.126
0.268
0.162
0.376
-0.154
0.380
-0.063
-0.277
-0.156
-0.415
0.133
-0.042
0.137
0.228
-0.338
0.095
-0.247
0.091
-0.652
-0.339
0.430
0.078
0.317
0.357
-0.214
0.387
0.202
0.243
-0.046
0.059
-0.421
0.030
-0.182
0.374
0.254
0.080
-0.522
0.031
-0.423
-0.152
-0.077
0.407
0.238
0.047
0.451
-0.048
0.451
0.063
-0.257
0.027
-0.059
-0.648
0.349
-0.238
-0.495
-0.110
0.188
0.370
0.450
0.269
0.364
0.261
-0.191
-0.094
0.066
-0.284
0.137
0.786
0.041
0.239
-0.071
-0.051
-0.073
-0.269
0.039
-0.744
-0.266
0.368
-0.480
0.559
0.051
0.087
-0.209
-0.266
-0.623
-0.595
-0.001
-0.174
-0.255
0.802
0.013
-0.299
0.150
0.270
0.423
0.185
0.166
0.449
-0.425
-0.042
0.224
0.212
-0.395
0.660
0.022
0.278
0.076
0.465
-0.591
0.359
-0.107
-0.997
-0.952
0.233
0.466
0.289
0.077
-0.167
-0.203
-0.086
0.039
0.186
0.344
-0.217
-0.913
0.095
0.178
0.195
0.007
0.276
0.265
-0.421
-0.124
-0.048
0.271
0.202
-0.312
0.392
0.737
-0.832
-0.617
-0.166
-0.035
-0.102
-0.017
0.247
-0.528
-0.056
0.564
0.494
-0.330
-0.549
-0.528
-0.035
0.091
0.074
0.297
-0.197
-0.173
-0.198
0.080
0.098
0.291
0.392
-0.405
0.133
0.306
-0.314
-1.212
-0.055
-0.057
-0.584
0.570
0.091
-0.531
0.779
0.496
0.222
0.128
-0.498
-0.105
0.570
0.098
0.628
-0.861
-0.576
0.168
0.079
-0.522
0.056
-0.729
0.390
0.339
0.134
0.043
0.089
0.099
-1.067
0.509
0.081
0.076
-0.381
0.298
0.007
-0.206
-0.296
-0.181
-0.247
0.237
0.011
-0.163
-0.470
-0.334
-0.683
-0.317
-0.398
-0.192
-0.213
-0.209
0.139
-0.623
0.153
0.316
-0.034
0.429
0.434
0.240
-0.018
-0.897
0.215
-0.155
0.241
-0.075
-0.118
-0.070
0.020
0.048
0.032
-0.049
-0.078
-0.058
-0.114
-0.226
0.106
-0.105
-1.150
0.545
-0.141
-0.283
0.189
-0.048
-0.131
-0.971
0.503
-0.297
0.418
-0.347
0.106
0.142
0.150
0.129
-0.306
-0.329
-0.096
-0.171
-0.576
0.138
0.201
0.276
-0.800
-0.144
-0.238
-0.121
-0.062
-0.213
0.049
-0.874
-0.492
0.553
0.029
0.101
0.221
-0.018
0.140
0.255
0.136
-1.162
0.914
-0.928
0.091
0.343
0.424
-0.198
0.165
0.315
0.533
-0.030
-0.278
0.195
-0.598
-0.175
-0.484
-0.105
0.178
-0.300
0.004
0.035
0.332
0.001
0.130
-0.016
-0.143
-0.461
-0.085
-0.183
-0.029
0.103
-0.311
0.149
0.195
-0.317
-1.322
-0.063
0.319
0.122
0.393
0.142
0.365
-0.458
0.297
-0.349
-0.460
-0.142
-0.072
-0.218
-0.098
0.468
0.184
0.461
0.398
0.130
-0.042
0.077
0.181
0.373
-0.069
0.041
0.189
0.008
0.073
0.273
0.133
-0.182
-0.071
0.080
-0.178
-0.223
0.134
0.103
0.744
0.080
0.310
0.145
0.243
0.132
0.458
-0.266
0.171
-0.038
-0.046
-0.397
-0.179
0.192
0.266
0.117
0.505
-0.133
0.442
0.234
0.298
-0.077
0.048
-0.394
0.157
0.473
0.090
0.308
0.352
0.524
0.530
0.376
0.276
0.333
0.038
0.171
-0.002
-0.051
-0.340
-0.568
0.065
-0.332
0.127
-0.826
0.455
0.290
0.243
0.499
-0.427
-0.311
0.275
-0.037
-0.163
0.418
-0.381
0.330
-0.001
0.200
0.361
-0.757
-1.066
0.272
-0.028
0.216
0.259
-1.478
-0.042
-0.333
0.032
0.122
-0.099
-1.072
-0.394
-0.043
0.536
0.192
-0.250
0.321
0.151
0.512
0.187
0.121
-0.027
0.114
0.223
0.590
-0.336
0.163
0.438
0.342
0.089
0.240
-0.115
-0.136
-0.317
0.232
0.137
-0.108
0.271
0.171
0.278
-0.038
0.110
-0.102
0.087
-0.044
-0.097
-0.036
-0.194
-0.147
-0.632
0.325
0.143
0.189
-0.112
0.330
-0.145
-0.941
0.630
0.099
0.119
-0.192
-0.115
-0.476
-0.171
0.005
0.123
0.104
-0.108
0.447
0.448
0.266
-0.461
-0.598
0.570
0.128
0.252
-0.093
-0.214
0.004
0.013
-0.646
0.553
0.049
0.542
-0.036
-0.153
0.129
-0.383
-0.517
-0.234
0.029
-0.038
0.309
0.133
-0.192
0.272
0.303
0.562
0.069
-0.105
0.195
-0.547
0.390
0.398
0.873
-0.060
-0.084
0.254
-0.280
0.096
-0.205
0.379
0.461
0.420
0.011
0.159
-0.745
-0.406
0.120
0.151
0.099
0.044
0.230
0.779
0.052
-0.132
0.152
0.095
-0.461
-0.702
-0.336
-0.382
-0.283
-0.724
-0.071
-0.239
0.338
-0.354
0.379
-0.409
0.018
-0.243
0.103
0.133
-0.234
-0.290
0.466
0.250
0.066
0.621
0.013
0.129
0.133
-0.009
-0.166
0.027
-0.660
-0.197
0.416
-0.149
-0.046
0.012
-0.052
-0.213
0.188
0.219
-0.295
0.510
-0.504
0.170
0.400
-0.160
-0.362
-0.161
0.332
0.125
0.107
-0.021
-0.257
0.264
-0.347
-0.531
0.005
-0.041
0.053
0.018
-0.938
-0.344
-0.341
0.158
0.384
0.103
0.507
-0.002
0.341
0.305
0.335
0.779
-0.108
0.497
0.094
0.299
-0.382
0.246
0.187
0.027
0.455
0.194
-0.268
0.389
0.249
0.139
-0.033
-0.159
0.085
0.199
-0.047
0.322
0.247
-0.505
-0.385
-0.166
0.122
0.642
0.217
-0.261
-0.031
-0.352
0.095
-0.066
0.392
0.307
0.050
0.244
-0.051
0.149
-0.088
-0.111
-0.320
0.253
0.142
-0.057
0.153
0.316
-0.289
-0.622
0.413
0.096
0.561
-0.196
-0.270
-1.125
0.074
0.398
0.117
-0.172
-0.261
-0.326
-0.210
-0.117
0.332
0.090
0.324
0.312
-0.290
-0.032
-0.562
-0.060
0.366
0.163
0.511
-0.179
0.275
-0.025
-0.133
-0.759
0.164
0.101
-0.132
-0.473
0.106
-1.442
-0.322
-0.138
0.346
-0.110
0.160
0.045
-0.313
-0.146
-0.123
0.242
0.138
-0.137
-0.278
-0.064
-0.228
0.164
0.096
-0.008
-0.352
-0.228
-0.164
0.228
0.616
-0.525
-0.146
0.114
-0.227
0.202
0.111
-0.604
0.065
0.651
0.506
-0.073
-0.434
0.482
-0.064
0.400
-0.084
-0.059
-0.363
0.386
-0.196
-0.118
-1.154
0.045
0.355
0.441
0.303
0.127
0.174
0.156
-0.657
-0.182
-0.188
-0.322
-0.812
-0.181
0.413
0.216
0.381
-0.615
-0.196
0.190
-0.034
0.258
0.135
-0.268
-0.355
-0.115
0.568
-0.434
-0.108
-0.586
-0.015
0.074
-0.037
-0.320
0.548
0.485
0.247
-0.835
-0.191
0.529
-0.343
-0.380
-0.683
0.462
-0.183
0.187
0.262
-0.165
-0.313
-0.494
-0.347
0.255
-0.058
-0.613
-0.077
0.214
0.123
0.156
0.151
-0.126
-0.528
0.134
0.418
-0.212
-0.123
-0.028
0.111
-0.102
-0.098
-0.168
0.357
-0.013
0.082
-0.322
0.076
-0.101
0.149
0.241
0.038
0.341
0.246
0.379
0.167
0.201
0.362
0.020
-0.451
-0.117
0.012
-0.400
0.087
-0.161
0.423
0.395
0.217
0.384
-0.259
-0.439
0.071
0.394
0.245
0.405
0.135
-0.154
0.378
-0.531
0.023
-0.340
-0.047
0.215
0.408
0.235
-0.191
-0.453
-0.041
-0.079
0.251
0.395
0.389
-0.915
0.109
0.333
0.264
0.112
-0.106
0.153
0.201
0.366
0.250
-0.426
0.148
0.298
0.366
0.180
-0.205
-0.604
-0.513
0.246
-0.141
0.194
0.165
-0.139
0.438
0.244
-0.393
0.142
0.501
0.129
-0.031
-0.093
0.118
0.324
0.451
0.352
0.298
0.010
-0.174
0.022
-0.065
-0.328
0.282
0.202
0.430
-0.285
0.580
0.638
0.453
-0.092
-0.018
0.311
0.048
-0.254
0.078
-0.643
0.153
-0.479
0.081
-0.221
0.009
0.079
0.000
0.606
-0.021
0.038
-0.828
-0.277
-0.271
-0.178
-0.307
0.162
0.335
-0.170
-0.283
-0.222
-0.030
0.677
0.252
0.148
0.155
0.450
0.198
0.026
0.265
-0.044
-0.303
-0.037
0.253
-0.026
0.478
0.700
-0.311
-0.342
-1.160
0.121
-0.735
0.325
0.313
-0.315
-0.025
0.824
-0.078
0.095
0.036
0.202
0.243
-0.076
-0.017
-0.042
-0.031
0.115
-0.215
-0.346
0.464
-0.322
0.057
0.140
-0.138
-0.367
-0.070
0.478
-0.426
0.055
0.023
0.234
0.262
0.026
-0.200
0.173
-0.283
0.009
0.415
0.092
-0.614
0.041
-0.063
0.361
0.479
-0.005
0.121
-0.186
0.152
-0.011
0.160
0.005
0.044
-0.056
0.296
-0.133
0.255
-0.303
0.171
-0.311
0.025
-0.129
-0.087
0.259
-0.209
-0.020
-0.206
-0.799
0.096
0.272
0.424
0.379
0.150
-0.047
0.226
-0.005
-0.336
0.387
0.538
0.427
-0.445
0.078
-0.021
-0.181
-0.455
-0.007
-0.182
0.191
-0.253
-0.338
-0.507
-0.530
0.100
0.276
-0.222
-0.343
-0.169
-0.171
-0.142
0.125
0.127
-0.046
-0.353
0.258
0.174
-0.109
-0.318
-0.557
0.004
-0.160
0.129
-0.191
0.316
-0.052
-0.171
0.112
-0.223
0.552
0.538
-0.205
0.259
-0.240
-0.109
0.240
0.179
0.092
0.015
0.203
-0.011
-0.040
0.007
-0.080
-0.596
0.156
0.025
-0.619
0.138
0.059
-0.338
0.039
-0.054
0.087
-0.560
0.202
0.224
0.159
0.097
-0.050
0.253
-0.231
-0.194
0.432
-0.874
0.229
-0.581
-0.542
-0.037
-0.094
0.130
-0.181
0.524
-0.026
-0.321
-0.266
0.086
-0.279
0.064
-0.204
0.065
-0.374
-0.672
0.294
-0.348
0.141
0.151
-0.840
0.323
0.239
-0.315
0.272
-0.786
0.284
0.398
-0.079
0.119
-0.671
-0.132
-0.389
-0.199
0.298
0.364
0.213
-0.629
0.558
-0.432
-0.608
0.227
0.044
-0.166
0.265
-0.252
0.066
-0.388
-0.101
-0.072
0.603
-0.648
-0.138
0.279
0.650
0.012
0.117
-0.592
-0.476
0.385
-0.192
0.240
-0.185
0.467
0.528
0.074
-0.264
0.153
0.078
0.348
-0.333
-0.356
-0.428
0.397
-0.010
-0.175
0.048
0.385
0.144
-0.688
-0.471
0.052
-0.209
0.489
0.215
0.163
0.412
0.324
0.115
-0.502
0.229
-0.337
-0.178
0.143
0.247
0.181
-0.076
0.218
-0.145
0.716
0.045
-0.651
0.283
-0.187
0.277
0.049
-0.290
-0.392
-0.333
0.204
0.835
-0.263
0.101
0.184
0.463
-0.197
0.261
-0.506
-0.339
0.232
-0.032
0.514
0.493
-0.058
-0.662
-0.183
0.272
0.010
-0.194
-0.019
0.040
-0.002
0.178
0.017
0.202
-0.169
0.144
-0.397
0.276
-0.032
0.242
-0.265
-0.140
0.446
0.308
-0.017
-0.223
0.301
0.155
-0.217
-0.435
0.368
0.330
0.273
-0.047
-0.219
-0.507
0.225
0.195
-0.215
-0.349
-0.316
0.210
0.112
0.308
-0.414
0.307
-0.630
0.098
0.207
-0.621
0.272
-0.209
-0.204
-0.306
0.355
-0.075
-0.227
0.302
-0.118
-0.424
0.506
-0.064
-0.215
-0.459
0.591
-0.631
-0.425
0.027
0.123
0.371
-0.320
0.383
0.054
0.216
-0.487
-0.009
-0.012
-0.526
-0.517
-0.374
-0.145
0.356
0.265
0.141
-0.075
0.222
0.113
-0.028
-0.024
0.241
0.396
0.234
0.349
-0.060
-0.476
0.038
0.295
-0.387
-0.096
-0.188
-0.087
-0.020
-0.841
0.133
-0.456
-0.614
-0.245
-0.347
0.293
-0.100
0.229
-0.575
-0.484
0.186
-0.789
-0.191
0.301
-0.295
-0.035
0.361
0.140
-0.224
-0.241
-0.338
0.359
-0.073
0.497
0.109
-0.609
0.025
-0.186
-0.039
0.084
0.470
0.295
0.170
-0.084
0.289
0.043
0.340
0.056
0.418
-0.335
-0.265
-0.472
0.434
-0.687
0.616
-0.412
0.363
-0.413
-0.525
0.316
0.441
0.712
0.252
0.048
-0.034
-0.181
-0.210
-0.527
0.419
-0.060
0.464
0.220
0.060
-0.502
0.290
-0.024
0.011
0.035
0.043
0.366
0.345
-0.160
0.253
-0.021
-0.702
-0.441
-0.319
0.159
-0.526
0.196
-0.300
-0.127
0.019
0.139
-0.319
-0.153
0.295
0.123
-0.178
0.409
-0.035
0.137
0.437
-0.047
-0.500
0.199
0.051
-0.057
-0.357
-0.217
-0.187
0.415
0.153
-0.173
-0.267
-0.300
-0.073
0.323
0.245
-0.018
0.308
-0.191
-0.174
-0.099
-0.211
-0.643
-0.272
-0.231
0.346
-0.415
0.010
0.651
0.493
-0.194
-0.129
0.167
0.219
-0.001
0.035
0.120
0.625
0.306
0.366
0.095
0.171
0.437
0.446
0.110
0.276
0.077
0.047
-0.329
-0.058
-0.059
-0.343
0.193
-0.017
-0.309
-0.277
-0.286
0.117
0.035
0.078
0.034
0.483
0.159
0.199
0.175
-0.094
-0.162
0.695
-0.182
-0.327
-0.536
-0.317
-0.101
-0.120
0.145
0.578
0.510
0.144
0.065
-0.353
0.088
-0.007
-0.235
0.566
0.103
0.095
-0.147
0.361
-0.454
0.214
0.351
0.025
0.140
0.201
0.529
0.338
-0.871
0.116
-0.017
-0.153
-0.165
-0.326
0.320
-0.166
-0.220
0.020
-0.345
0.212
0.126
0.033
-0.282
-0.214
0.077
-0.046
-0.202
0.337
0.131
-0.027
0.176
0.334
0.016
-0.247
-0.156
0.279
0.108
-0.184
-0.237
0.008
0.478
0.241
0.186
-0.130
-0.054
-0.409
0.027
0.100
-0.270
0.301
0.383
-0.098
0.432
0.194
-0.507
-0.531
-0.051
-0.087
-0.603
0.236
0.213
0.116
-0.142
0.121
-0.192
-0.255
0.015
-0.391
-0.041
0.056
0.439
-0.086
0.213
0.015
0.237
0.229
0.221
0.026
0.301
0.340
-0.380
-0.048
-0.476
-0.354
-0.612
0.365
-0.560
0.255
-0.401
-0.095
0.091
-0.111
-0.549
0.208
-0.921
0.240
0.224
0.416
0.415
0.296
0.053
0.283
-0.161
0.615
-0.211
0.230
-0.175
-0.057
-0.928
-0.273
0.208
0.315
-0.049
0.412
0.153
-0.200
-0.564
-0.466
-1.383
0.019
0.261
0.325
0.203
0.340
-0.326
0.018
0.477
-0.152
-0.070
0.135
0.315
0.019
0.199
0.628
0.379
0.150
0.257
0.150
-0.231
0.007
0.081
0.194
0.334
0.041
-0.061
0.150
-0.017
-0.199
0.267
0.187
0.348
0.367
0.539
-0.345
-0.594
0.155
0.328
0.238
0.123
0.246
-0.180
0.217
0.128
-0.428
-0.438
0.398
-0.109
-0.442
0.126
0.249
-0.011
0.255
0.067
-0.028
0.031
0.286
0.359
0.151
0.247
0.355
0.022
0.116
-0.198
0.365
0.008
-0.460
-0.591
0.142
-0.362
0.079
-0.113
-0.021
0.365
-0.445
0.130
-0.398
-0.052
-0.639
-0.178
-0.031
0.355
-0.222
0.214
0.034
-0.490
0.101
0.400
-0.462
0.075
0.320
-0.381
-0.654
-0.017
-1.075
-0.153
0.307
0.080
0.359
0.173
0.351
-0.073
0.206
0.295
0.248
0.334
0.381
-0.105
-0.220
-0.048
0.325
-0.091
-0.201
0.696
-0.102
-0.243
0.064
0.156
0.256
-0.747
-0.742
-0.024
0.325
-0.484
0.462
-0.296
0.245
-0.283
-0.529
0.009
-0.456
-0.213
0.207
0.029
-0.320
0.279
-1.091
-0.077
0.068
0.229
-0.353
-0.077
-0.235
-0.229
-0.318
0.138
-0.445
0.276
0.133
0.186
0.499
0.263
-0.230
-0.337
0.412
-0.024
0.200
0.145
0.306
-0.066
-0.104
0.024
0.372
0.350
0.388
-0.347
0.131
0.196
0.083
-0.383
-0.131
0.194
0.210
0.215
0.221
-0.107
0.178
-0.147
-0.464
-0.642
-0.066
0.530
-0.056
0.350
0.042
0.273
0.144
-0.193
0.517
0.179
-0.524
0.260
0.077
-0.823
0.180
-0.096
0.288
-0.284
-0.307
-0.034
-0.244
-0.575
0.125
0.225
0.244
0.003
0.137
-0.574
-0.283
-0.256
-0.082
-0.337
0.133
-0.343
-0.093
-0.277
-0.629
-0.789
0.322
0.339
0.309
0.313
-0.423
0.366
0.390
0.460
0.427
0.011
0.313
-0.278
0.235
0.311
0.237
-0.016
-0.005
0.096
-0.334
-0.441
-0.556
-0.205
-0.337
-0.323
-0.122
0.349
-0.273
0.162
0.660
-0.309
-0.719
-0.382
-0.392
-0.042
0.151
-0.171
-0.569
0.208
0.091
0.384
0.074
0.207
-0.672
0.213
0.058
0.153
0.381
-0.344
-0.631
0.443
0.101
-0.417
0.355
0.575
-0.209
-0.034
0.225
0.572
0.019
-0.183
0.321
-0.328
0.373
-0.173
-0.796
0.090
0.044
-0.319
-0.031
-0.342
0.137
-0.480
0.173
0.107
0.307
0.363
0.449
-0.200
-0.314
0.379
0.137
0.233
-0.043
0.545
0.220
-0.066
-0.349
0.120
0.130
0.330
-0.794
0.533
0.059
-0.081
0.390
-0.223
-0.490
0.017
0.005
0.000
-0.390
0.120
0.032
-0.097
0.101
-0.008
0.036
-0.358
0.293
0.797
0.023
-0.028
0.016
0.359
0.206
0.036
-0.010
0.217
0.202
0.036
0.366
-0.102
0.329
-0.828
0.380
-0.304
-0.408
0.628
0.210
-0.062
-0.158
-0.147
-0.290
0.364
-0.207
0.332
-0.078
0.129
0.944
0.092
0.135
-0.395
0.218
-0.184
0.140
-0.579
0.211
-0.026
-0.047
-0.335
0.320
-0.277
-0.344
-0.076
0.200
-0.529
0.056
0.108
-0.205
0.141
-0.321
0.358
0.147
0.309
-0.144
0.370
-0.220
0.229
-0.059
-0.203
-0.337
0.334
-0.175
0.127
-0.192
-0.334
-0.214
0.237
0.267
-0.471
-0.012
-0.006
0.076
0.021
-0.591
-0.046
-0.028
-0.266
-0.997
0.380
0.064
0.022
-0.295
0.133
0.121
0.496
0.355
0.239
0.327
-0.209
-0.211
0.103
0.157
-0.224
0.354
0.378
0.036
0.378
0.373
0.363
0.387
0.358
0.030
0.453
0.496
-0.053
-0.159
0.657
0.359
0.286
0.136
-0.181
0.214
-0.020
-0.105
-0.409
0.163
0.015
0.037
0.766
0.238
-0.374
0.046
0.362
-0.281
-0.212
0.088
0.674
-0.521
-0.236
0.157
0.192
-0.035
0.105
0.099
0.307
-0.116
0.314
-0.215
-0.437
-0.390
0.196
0.331
0.312
-0.109
-0.191
0.224
-0.525
-0.054
-0.141
0.380
0.348
0.264
-0.084
0.342
0.066
-0.062
-0.393
-0.215
-0.474
-0.327
-0.335
-0.353
-0.227
-0.321
-0.386
0.087
-0.349
-0.563
-0.008
0.214
0.381
0.024
0.259
-0.289
-0.409
-0.082
-0.149
0.189
-0.298
0.372
-0.091
-0.123
-0.172
0.356
0.076
0.352
-0.063
-0.021
0.003
-0.336
0.389
0.732
0.312
0.128
-0.073
0.128
-0.207
0.163
0.297
-0.315
0.216
0.072
-0.202
-0.074
-0.069
0.241
-0.203
-0.065
0.080
-0.117
-0.191
0.332
0.505
0.293
-0.104
0.551
-0.875
-0.305
-0.168
-0.105
-0.177
0.119
-0.397
0.444
0.437
0.021
-0.188
-0.561
-0.114
-0.096
0.076
-0.289
-0.093
0.179
-0.350
-0.442
0.258
0.296
-0.314
-0.326
0.337
0.004
0.525
-0.610
-0.038
0.304
-0.522
-0.280
-0.006
-0.327
-0.989
-0.208
-0.085
0.313
0.073
0.334
-0.315
0.921
0.061
0.116
0.208
-0.085
0.180
0.237
0.014
0.086
-0.262
0.182
-0.359
-0.194
0.095
-0.136
0.057
0.394
0.834
-0.309
-0.113
0.347
-0.113
0.156
0.251
-0.335
-0.191
0.136
-0.312
-0.343
0.252
-0.238
-0.236
0.000
-0.564
-0.142
0.019
0.385
-0.111
-0.068
0.618
-0.207
-0.204
0.342
-0.647
-0.526
-0.472
0.282
-0.021
0.212
-0.029
0.100
0.119
0.072
-0.438
-0.172
0.182
0.403
0.008
0.093
-0.449
-0.332
-0.029
0.106
-0.061
0.344
0.097
0.428
0.161
0.498
-0.230
-0.051
-0.347
0.283
-0.186
-0.108
0.137
-0.181
0.092
0.379
0.349
0.185
0.394
0.132
0.259
0.616
-0.129
-0.059
0.362
-0.012
-0.023
0.202
0.442
0.247
0.218
0.333
0.424
-0.297
0.055
-0.082
-0.261
0.116
-0.211
-0.698
0.321
0.590
-0.100
-0.246
0.210
-0.228
-0.330
-0.213
0.133
0.030
-0.179
-0.298
0.163
-0.875
0.191
-0.633
0.243
0.145
0.096
0.379
0.537
0.009
0.673
0.396
0.062
0.574
-0.041
-0.075
-0.291
0.454
0.247
-0.149
0.587
0.198
0.260
0.220
0.223
-0.231
-0.022
0.387
-1.597
-0.361
0.233
-0.656
0.149
0.231
-0.032
0.159
0.527
-0.394
-0.061
0.230
0.241
0.176
0.133
-0.057
0.344
0.605
0.077
0.668
-0.186
0.284
0.336
-0.093
-0.174
0.055
0.286
-0.200
0.591
0.110
0.075
0.146
-1.306
0.238
0.336
-0.089
-0.346
-0.176
-0.138
-0.465
-0.167
-0.211
0.055
-0.753
-0.182
0.185
0.119
0.148
-0.075
0.021
-0.042
0.372
0.334
0.925
0.352
-0.443
0.148
-0.145
0.114
-0.668
-0.294
0.167
-0.066
0.045
0.312
-0.083
0.111
0.572
0.244
0.157
0.808
-0.537
0.102
0.379
0.378
-0.177
0.198
0.796
0.090
0.116
-0.511
0.035
0.447
0.165
-0.076
0.116
-0.065
0.091
-0.265
0.178
0.074
-0.178
0.380
0.388
0.386
0.382
0.385
0.509
0.363
0.512
0.383
0.210
0.335
-0.044
-0.145
0.376
-0.142
0.385
0.131
0.138
0.322
0.003
-0.194
-0.492
-0.633
0.339
0.376
0.378
0.223
0.397
-0.218
-0.180
0.164
-0.312
0.392
0.134
1.002
-0.055
0.374
0.001
0.165
0.385
0.018
0.098
0.187
0.027
0.427
0.028
0.259
0.360
0.225
0.362
0.366
0.011
0.370
0.188
-1.063
-1.106
0.002
-0.420
0.006
-0.414
-0.002
0.368
0.178
0.158
0.177
0.052
-0.250
0.134
0.028
-0.503
0.329
-0.169
0.322
0.149
-0.961
0.392
-0.308
0.473
0.114
-0.409
0.222
-0.177
1.145
0.318
-0.282
0.370
0.349
0.187
-0.509
0.244
0.026
0.021
0.033
0.645
0.222
0.177
0.094
0.369
0.529
-0.109
0.198
0.162
-0.268
0.052
0.259
-0.145
0.174
-0.165
0.539
-0.100
0.036
0.405
0.151
0.267
-0.010
-0.365
0.248
0.370
0.369
0.467
0.176
-0.701
0.132
-0.409
0.230
0.348
-0.195
0.051
0.115
0.124
0.126
0.089
0.060
-0.367
0.232
-0.185
0.047
-0.039
-0.616
0.009
0.206
0.011
0.091
0.094
0.260
0.036
0.051
0.628
-0.698
0.259
-0.039
-0.646
0.574
-0.081
0.144
0.022
-0.364
-1.031
0.213
-0.104
0.297
-0.009
0.254
-0.368
0.213
-0.337
0.646
-0.297
-0.036
-0.298
-0.039
-0.169
-0.495
0.336
0.264
0.403
0.276
0.332
-0.061
0.466
0.284
0.353
0.026
0.178
0.075
-0.472
-0.968
-0.157
0.368
-0.331
0.539
-0.514
-0.323
-0.496
-0.480
0.344
-0.021
-0.173
0.176
0.184
-0.016
0.169
-0.012
-0.012
0.000
0.195
