0.705
0.041
-1.049
-0.178
0.030
0.112
-0.305
-0.018
-0.427
-0.301
0.192
0.868
0.001
-0.044
-0.376
-0.193
0.164
0.040
-0.788
0.088
-0.335
-0.742
-0.246
-0.019
0.836
-0.319
-0.184
-0.736
0.012
0.633
0.338
0.162
0.115
-0.204
0.673
-0.819
0.342
-0.363
0.073
0.307
-0.469
0.190
1.092
0.070
0.243
0.451
-0.602
0.432
0.311
-1.051
0.231
0.572
1.428
-0.555
-0.751
0.242
-0.400
0.342
0.521
0.007
-0.007
0.448
-0.256
0.060
0.030
0.315
0.158
-0.245
0.536
0.310
-0.113
0.261
0.117
0.236
-0.839
-0.867
-0.266
-0.883
0.398
0.471
-0.805
-0.110
-0.331
-0.037
0.016
0.371
0.301
-0.068
-0.243
0.372
-0.282
0.423
0.797
-0.564
0.264
-0.093
0.307
-0.136
0.540
0.306
-0.139
-0.179
0.270
-0.182
0.467
0.513
0.509
0.180
-0.364
-0.135
-0.096
-0.486
0.013
-0.268
0.185
0.073
-0.242
-0.180
0.576
-0.023
-0.154
0.771
0.214
0.152
0.298
-0.489
-0.756
0.522
0.301
0.139
-0.580
-0.772
-0.771
0.126
0.041
0.046
-0.056
0.195
-1.314
-0.301
-0.059
-0.020
-0.386
0.103
-0.109
-0.105
0.207
0.147
-0.713
0.110
0.187
-0.170
-1.570
0.310
0.222
-0.035
-0.156
0.043
-0.511
-0.537
-0.061
0.666
-0.251
0.522
-0.156
0.147
-0.500
0.304
0.758
-0.382
0.974
0.022
-0.160
0.362
0.073
0.419
-0.239
0.262
0.195
-0.331
-0.604
-0.051
-0.105
-0.005
-0.199
0.384
-0.260
0.542
0.065
0.136
-0.052
0.560
-0.387
0.041
-0.237
-0.052
0.058
-0.072
-0.621
0.202
0.302
-0.068
0.060
-0.129
-0.096
0.334
-0.436
-0.458
-0.022
0.354
-0.012
-0.019
0.308
-0.440
0.023
-0.194
-0.649
-0.603
-0.545
0.181
0.205
-0.533
-0.655
0.622
-0.093
-0.113
0.331
0.165
0.112
-0.504
-0.555
-0.194
-0.603
0.244
-0.272
0.248
-0.277
0.077
-0.005
0.507
0.061
0.019
0.790
0.164
-1.075
0.402
-0.320
0.183
0.192
0.603
0.668
0.325
0.337
0.057
-1.074
0.320
-0.215
0.026
-0.443
-0.103
-0.111
-0.410
-0.019
-0.233
-0.090
-0.524
0.210
-0.437
0.199
-0.427
-0.403
-0.297
0.385
-0.258
0.315
0.911
0.311
0.306
-0.257
0.355
-0.331
0.278
-0.420
0.204
-0.184
0.178
-1.182
-0.373
0.096
0.137
0.182
-0.472
-0.761
-0.756
-0.244
0.103
-0.967
-1.235
0.049
0.190
-0.278
0.262
-0.014
0.294
0.272
-0.221
-0.647
-1.156
-0.129
-0.117
-1.146
-0.086
-0.122
-0.437
-0.568
-0.448
-0.344
0.091
0.365
-0.078
-0.018
-0.317
-0.463
-0.263
-0.264
0.127
0.505
-0.805
-0.631
-0.209
-0.137
-0.168
-0.632
-0.409
-0.078
0.489
0.765
-1.247
0.349
0.579
0.406
-0.381
0.134
-0.016
0.321
-0.220
-0.038
0.730
-0.064
-0.327
-0.018
0.180
0.028
0.046
0.383
0.160
0.159
-0.325
-0.220
0.040
-0.560
0.217
-0.206
0.560
-0.802
0.009
0.096
-0.551
-0.288
-0.161
0.978
-0.381
-0.335
0.047
0.533
0.495
0.338
0.064
-0.295
0.096
0.009
0.063
0.130
-0.380
-0.342
-0.633
-0.391
-0.018
0.651
-0.020
-0.186
-0.366
0.028
-0.343
-0.182
-0.759
0.012
0.194
-0.357
0.290
-0.085
0.242
-0.177
-0.301
0.185
-0.063
-0.107
0.520
-0.043
0.302
-0.302
-0.129
0.607
-0.058
0.206
-0.763
0.492
-0.565
0.058
0.047
0.182
-0.271
-0.124
0.138
-0.082
-0.216
-0.387
-0.865
0.517
-0.192
-0.541
0.096
-0.273
-0.230
0.545
-0.338
0.066
-0.088
0.134
0.121
0.673
-2.187
0.415
0.229
-0.305
-0.344
0.467
-0.566
-0.562
0.348
0.318
1.074
0.286
-0.062
-0.272
0.391
-0.154
0.432
0.489
0.246
-0.637
-0.421
0.139
0.088
0.360
0.281
-0.239
-0.082
-0.183
-0.192
-0.120
0.395
-0.272
-0.262
0.844
-0.122
0.059
-0.748
-0.146
-0.307
-0.642
-0.203
-0.087
0.181
0.125
0.513
-0.923
-0.276
-0.563
-0.558
0.384
0.323
-0.263
0.080
0.126
-0.620
-0.167
0.307
0.131
-0.691
-0.272
-0.430
-0.430
0.188
0.307
-0.317
-0.408
-1.607
-0.360
-0.872
0.185
0.166
-0.178
-0.425
0.821
-0.144
-1.371
0.052
0.617
0.259
0.069
-0.087
0.939
-0.282
-0.255
0.422
0.512
-0.588
-0.152
0.059
-0.119
0.282
0.589
0.396
-0.555
-0.351
0.333
0.611
0.041
0.144
-0.214
-0.057
0.825
0.904
0.070
-0.115
0.064
0.591
-0.219
0.008
-0.013
-0.474
0.484
0.453
0.084
0.667
0.426
0.423
0.070
-0.025
-0.290
0.472
-0.190
0.056
-0.083
-0.048
-1.344
0.280
0.394
-0.396
-0.537
0.271
0.313
0.125
-0.250
-0.437
-0.106
0.488
0.528
-0.256
0.389
0.060
-0.341
0.376
0.449
0.653
0.308
-0.645
0.404
-0.304
-0.422
0.147
-0.629
0.352
0.636
-0.072
0.265
0.179
-0.766
-0.541
0.350
-0.071
-0.216
0.008
-0.297
0.024
0.208
-0.242
-0.233
0.079
